{"ft.weight": [[0.03548234701156616, 0.026812121272087097, -0.01348625123500824, 0.030362583696842194, -0.007495054975152016, -0.024667304009199142, -0.03337348625063896, 0.00764060765504837, 0.125204399228096, -0.9654873609542847, 0.041460756212472916, -0.36278465390205383, 0.1575503647327423, 0.5220905542373657, 0.6959085464477539, 0.4239623248577118, 0.13311563432216644, -0.5048556923866272, -0.06606633961200714, 0.890735924243927, 0.4892772138118744, 0.753210723400116, 0.7061400413513184, 0.2952732741832733, -0.10848350822925568, -0.028210332617163658, -0.6937487721443176, 1.149619698524475, 0.8174769878387451, 0.7487262487411499, 0.11924749612808228, 0.2806456685066223, 0.1670091450214386, 0.1518867313861847, -0.5005980730056763, -0.07007057964801788, 0.5689876079559326, 0.8545362949371338, 0.43441900610923767, -0.2875548303127289, 0.6417346000671387, 0.2559889256954193, 0.31214460730552673, 0.033426474779844284, 0.11186036467552185, 0.33195385336875916, 0.18389785289764404, 0.23598533868789673, 1.5029041767120361, -0.34623387455940247, -0.10586241632699966, -0.8204429149627686, 0.23405924439430237, -0.2604120969772339, 0.722784698009491, -0.672692596912384, 0.03582199662923813, -0.0046892426908016205, -0.007403440773487091, 0.007165335118770599, 0.004474025219678879, -0.01723811961710453, 0.03358259052038193, -0.02110348269343376, 0.46725350618362427, 0.13365896046161652, 0.5752578973770142, 0.17502322793006897, 0.6540126204490662, 0.4091010093688965, 0.5588480830192566, -0.413707435131073, 0.15258128941059113, 0.7863019704818726, 0.3553451597690582, 0.3409619629383087, 0.29648059606552124, 0.9604124426841736, 0.35746124386787415, 0.7290393710136414, 0.35358983278274536, 0.20663337409496307, 0.17592917382717133, 0.4935509264469147, 0.07445411384105682, 0.671555757522583, 0.5714863538742065, 0.8170632123947144, -0.04562884941697121, -0.11217795312404633, 0.30224093794822693, 0.6274460554122925, 0.5213578343391418, 0.6967290639877319, 1.115540862083435, 0.5554888844490051, 0.5170098543167114, 0.4694990813732147, -0.5969805717468262, 0.26604339480400085, 0.7858515977859497, 1.2781858444213867, 0.910515546798706, 0.34431707859039307, -1.7721474170684814, 0.528677761554718, 0.866166889667511, 1.0150192975997925, 0.8249985575675964, 0.9188704490661621, 1.004917025566101, 1.8802564144134521, 1.0729950666427612, 0.4625455439090729, 0.3299978971481323, -0.563552737236023, 1.0924105644226074, 0.13135027885437012, 1.713957667350769, 1.1375133991241455, 0.39733096957206726, 1.073441505432129, 1.2347066402435303, 0.5052037239074707, 1.4159436225891113, 0.29908159375190735, 1.2471498250961304, 1.91175377368927, 0.7295379638671875, 0.956942081451416, 0.4167362153530121, 0.361541748046875, 0.16512157022953033, 1.1580328941345215, 1.340315818786621, 1.9652330875396729, 0.5278778672218323, 0.5397464632987976, 0.36275017261505127, 0.2162383794784546, 1.1085693836212158, 0.8067003488540649, 1.0052212476730347, 1.2048836946487427, 0.1596331000328064, -0.41146162152290344, 0.4719494879245758, 0.9320611953735352, 0.5657060146331787, 1.1963013410568237, 1.1268805265426636, 1.1273751258850098, 0.2856914699077606, -0.04636964201927185, -0.01608090288937092, 0.2753201127052307, 1.224952220916748, 0.8991667032241821, 1.4865407943725586, 0.9662541151046753, 0.5223937034606934, 1.025398850440979, -0.6289516687393188, 0.01537631917744875, 1.2802907228469849, 1.8199785947799683, 1.0968183279037476, 1.2040865421295166, 1.2762041091918945, 0.8607330918312073, 0.7953569293022156, 0.47144412994384766, 0.3132467269897461, 1.4833159446716309, 1.1737700700759888, 0.2445726990699768, 0.9401779174804688, 0.2911990284919739, 0.8201696872711182, 0.6431507468223572, 0.23310813307762146, 0.34710460901260376, 0.7935571670532227, 1.5968950986862183, 1.4934477806091309, 0.825244665145874, 1.344887137413025, 0.1369863599538803, -1.9800000190734863, 1.1036276817321777, -1.9710389375686646, 1.5812067985534668, -0.3510478734970093, -0.29399222135543823, -0.010464287362992764, 0.015320172533392906, -0.15437355637550354, -0.30252233147621155, -0.004587151575833559, -0.12685999274253845, -0.32346534729003906, -0.3727506995201111, -0.3703334629535675, 0.340028315782547, 0.16116422414779663, -0.031340342015028, 0.6594383716583252, 0.6319968700408936, -0.5018174648284912, -0.6641429662704468, 0.25525137782096863, 0.822853684425354, 0.542767345905304, 0.15627971291542053, 0.48251965641975403, 0.22967466711997986, -0.044315557926893234, -0.366747111082077, -0.05396125838160515, 0.5857370495796204, 0.6437074542045593, 1.2872018814086914, 1.2549505233764648, 0.6228921413421631, 0.039670977741479874, -0.4914458990097046, -0.5002407431602478, 0.07301945984363556, 0.39211922883987427, 1.3584665060043335, 1.1745139360427856, 0.9654943943023682, 0.20292973518371582, 0.03791042044758797, -0.12130861729383469, 0.45937100052833557, 0.3278247117996216, 0.3069401979446411, 1.2736161947250366, 0.4432772397994995, 0.017641151323914528, 0.09657200425863266, 0.5346080660820007, 0.19898644089698792, 0.5851291418075562, 0.24945490062236786, 1.0244112014770508, 0.9645384550094604, 0.9563412070274353, 0.6128023862838745, 0.10169678926467896, 0.4963712692260742, 0.8689300417900085, 1.0781404972076416, 1.0100916624069214, 1.1377336978912354, 0.5403845310211182, 0.747023344039917, 0.6198253035545349, 0.6249588131904602, 0.4890977442264557, 0.8139324188232422, 1.0876258611679077, 0.8174138069152832, 0.7708240747451782, 0.7109887599945068, 0.5697373747825623, 0.6771271824836731, 1.1854358911514282, 0.8652006387710571, 0.9296016097068787, 0.9082363843917847, 0.20588482916355133, 0.4929437041282654, 0.8798094987869263, 1.3589318990707397, 1.3654484748840332, 1.4719727039337158, 1.2624493837356567, 1.5382146835327148, 0.9013720154762268, -0.0029952554032206535, 0.9371806383132935, 0.4631873667240143, 1.3886692523956299, 1.6258189678192139, 1.2738890647888184, 1.3033632040023804, 1.1900421380996704, 1.2285456657409668, 0.7580009698867798, 1.1453633308410645, 1.4900479316711426, 1.673172950744629, 1.0473980903625488, 1.5001051425933838, 1.212936520576477, 1.245467185974121, 0.6532469391822815, 0.9692234396934509, 1.1455044746398926, 1.1345144510269165, 0.9673458337783813, 0.8591024875640869, 1.0265979766845703, 1.1973050832748413, 1.4727439880371094, 1.5612999200820923, 0.810852587223053, 0.5467239022254944, 1.885374665260315, 1.2763841152191162, -0.9781395792961121, -1.4932667016983032, 1.5628000497817993, 1.4935022592544556, 0.8094326853752136, -0.8235333561897278, -0.4468512237071991, 1.2084811925888062, 1.254011869430542, 1.1216139793395996, 1.3862136602401733, 1.397473692893982, 0.29283636808395386, 0.5221037864685059, 0.4429255723953247, 0.26471465826034546, 1.2819433212280273, 0.9453648328781128, 1.0176228284835815, 0.5478476285934448, 0.7096509337425232, 0.47758978605270386, 0.2674621045589447, 0.23922185599803925, 1.4721298217773438, 0.23574213683605194, 0.4115578830242157, 0.9220098257064819, 0.31644636392593384, 0.4094017744064331, 0.3328683376312256, 0.3557387888431549, 0.11784203350543976, 1.2122251987457275, 0.20879939198493958, 0.45755040645599365, 0.8765087127685547, 0.098057821393013, 0.5599448680877686, 0.3447430729866028, 1.5727078914642334, 1.8180298805236816, 1.0631248950958252, 0.1432378590106964, 0.20913836359977722, 1.3012362718582153, -0.024594081565737724, -1.5408886671066284, 1.0727678537368774, 0.9056497812271118, 1.2268270254135132, 0.38215309381484985, 0.2579164206981659, -0.19964508712291718, -1.7557848691940308, -0.23933711647987366, 1.9457277059555054, -1.9800000190734863, 1.9664793014526367, -1.9800000190734863, -1.8745629787445068, -1.341223120689392, -1.340858817100525, -0.7907571196556091, 1.9800000190734863, 0.9911296367645264, 1.6971079111099243, -1.9663382768630981, 0.41513168811798096, -1.7395800352096558, -0.3164985775947571, 0.5475763082504272, -0.02988305687904358, -0.035620953887701035, 0.009725909680128098, -0.023760467767715454, -0.014313779771327972, -0.035105615854263306, 0.034199558198451996, -0.011872341856360435, 0.7900375127792358, 0.9139835834503174, 0.7135171890258789, 1.2338242530822754, 1.2831801176071167, 1.5505174398422241, 0.7938352823257446, 0.9427425861358643, 0.1651122123003006, 0.7595341801643372, 0.8774612545967102, 1.4689993858337402, 0.9059992432594299, 1.0382992029190063, 0.07286587357521057, -0.10526730865240097, 0.03766635060310364, 0.34054553508758545, 0.9202109575271606, 0.9159461259841919, 0.29915282130241394, 0.19157028198242188, 0.6244344711303711, 0.15596744418144226, 0.03246260806918144, -0.0037044682539999485, -0.3915002942085266, 0.3854683041572571, 0.5740569233894348, 0.4146841764450073, 0.21029077470302582, 0.028427740558981895, -0.17533747851848602, -0.2554551064968109, -0.3302018344402313, -0.15703590214252472, 0.18128670752048492, 0.29263463616371155, 0.4317781627178192, 0.04818307235836983, -0.21481214463710785, -0.10910164564847946, -0.1832251101732254, -0.030549945309758186, -0.21933221817016602, 0.37622806429862976, 0.6097460985183716, 0.2542373239994049, -0.017338385805487633, -0.03029518574476242, 0.031711146235466, -0.03391779959201813, -0.005885716527700424, 0.004919517785310745, -0.011166393756866455, 0.019664272665977478, 0.9264666438102722, 1.5250263214111328, 0.10061942785978317, 0.7498821020126343, -0.2924927771091461, 0.3052806556224823, 0.13199608027935028, -0.5196171402931213, 1.1867469549179077, 0.5141131281852722, -0.2854033410549164, -0.36529454588890076, 0.7738004326820374, 0.28642380237579346, -0.9526147842407227, -1.9342005252838135, 0.5787831544876099, 0.18909090757369995, 0.18534192442893982, 0.471141517162323, -1.0352022647857666, 0.25685736536979675, 1.0684642791748047, -1.6045382022857666, 0.3764358162879944, -0.3275453746318817, 0.19342079758644104, 0.46288907527923584, -0.5379531383514404, -0.9484319686889648, -0.9442285299301147, -1.1033766269683838, -0.13929182291030884, 0.041444431990385056, -0.4004906713962555, 0.07361072301864624, -0.2201688438653946, -1.2124348878860474, -1.3557783365249634, -1.2427808046340942, -0.34435033798217773, -0.09215324372053146, -0.40465930104255676, -0.47091352939605713, -0.7490886449813843, -0.5880043506622314, -0.9610927700996399, -0.6796687841415405, -0.04177102446556091, 0.19656820595264435, 0.12148378789424896, -0.6362317800521851, -0.6081821918487549, -0.6648427844047546, -0.562391996383667, -0.8468234539031982, -0.8973281383514404, -0.31373095512390137, -0.12820111215114594, -0.6475621461868286, -0.41607338190078735, -0.7468132972717285, -0.7271711230278015, -1.4633369445800781, -0.19562512636184692, 0.17613311111927032, -0.3028219938278198, -0.06612798571586609, 0.33100172877311707, 0.18156157433986664, -0.05508548021316528, -0.6914001107215881, 0.9648547768592834, 0.17026923596858978, 0.23717369139194489, 0.10817260295152664, -0.04756619781255722, 0.1319846659898758, 0.2221231311559677, -1.481520175933838, 0.38893425464630127, -0.24342744052410126, 0.059551600366830826, 0.35453495383262634, 0.2719348073005676, -0.31187087297439575, 0.2851540446281433, -0.6940842866897583, 0.09633219242095947, 0.02765829861164093, 0.15698987245559692, 0.2756199240684509, -0.19206364452838898, 0.02713511697947979, -0.5282305479049683, -0.5155076384544373, 0.15435673296451569, -0.36722517013549805, -0.21191982924938202, -0.2694973945617676, -0.44791388511657715, -0.05938967317342758, -0.5198814272880554, -0.14719752967357635, -0.37702205777168274, -0.40165409445762634, -0.04030335322022438, -0.24259109795093536, -0.29232022166252136, -0.8629828691482544, -0.19806921482086182, 0.115756094455719, -0.19086521863937378, -0.41937389969825745, -0.42694902420043945, 0.015194399282336235, -0.4095894396305084, -0.4426805377006531, -0.39180493354797363, -0.5629539489746094, -0.416568398475647, -0.4225049316883087, -0.4234296977519989, -0.8734824657440186, -0.2243575006723404, -0.15918496251106262, -0.19660840928554535, -0.9141055941581726, 0.7074900269508362, 0.5927996039390564, 0.8476361036300659, 0.35900139808654785, 0.2522192597389221, 1.2068166732788086, 0.5487736463546753, 0.6137329936027527, 0.842714250087738, 0.6999805569648743, 0.4186113178730011, -0.3389134407043457, 0.16546885669231415, 1.182834506034851, 1.383434534072876, 1.3036621809005737, 0.857050359249115, 1.006502628326416, 0.6701253652572632, 0.2959955036640167, -0.570751428604126, 0.059226322919130325, -0.5660706162452698, -0.8990328907966614, 0.5282341837882996, 0.46896418929100037, 0.6776407957077026, 0.5305507183074951, -0.7841818928718567, -1.9800000190734863, -1.9316681623458862, 0.21802817285060883, 0.7074866890907288, 1.0008621215820312, 0.33692607283592224, -0.1452067345380783, 0.2581833600997925, -0.5751470327377319, -0.6446669697761536, -1.5500714778900146, 0.581536054611206, 0.7416956424713135, 0.21855668723583221, -0.5580804347991943, -0.40830641984939575, -0.010192733258008957, -0.5273259282112122, -0.00010935525642707944, 0.08260060846805573, 0.5499356389045715, 0.3792695105075836, -0.022806532680988312, -0.21583452820777893, -0.1929658204317093, -0.024383733049035072, 0.19037926197052002, 0.3484736979007721, 0.5497509837150574, 0.1568271368741989, -0.25399917364120483, -0.06984861940145493, 0.15446573495864868, -0.17236986756324768, 0.10764230042695999, -0.01408972218632698, 0.5242282748222351, 0.09890563786029816, -0.5451571345329285, -0.3890412449836731, 0.1340760439634323, -1.643019676208496, -0.6911937594413757, 0.23712725937366486, 0.34886857867240906, 0.46794891357421875, -1.1007899045944214, -1.6411043405532837, -1.4410978555679321, -1.5149236917495728, -1.9363206624984741, -0.07100681215524673, 0.09070982038974762, -0.5290683507919312, 0.1168409138917923, -0.5138102769851685, -0.7947792410850525, -0.5836418271064758, -1.6591259241104126, -0.39805302023887634, -0.3674705922603607, -0.25755271315574646, -0.6292113065719604, -1.9597946405410767, -1.9679619073867798, -1.9733905792236328, -1.3913477659225464, -0.48411452770233154, -0.6035723686218262, -0.3889421820640564, -1.7722344398498535, -1.820241928100586, -1.6919994354248047, -1.3737777471542358, -1.2107419967651367, -0.6919479370117188, -0.4556097984313965, -0.4142480492591858, -0.6039464473724365, -0.7768644094467163, -1.4819309711456299, -1.1623642444610596, -1.0613539218902588, -0.44227173924446106, -0.6726737022399902, -0.6808765530586243, -0.558736264705658, -0.5526245832443237, -0.7787370085716248, -0.8990195989608765, -1.9453405141830444, -0.27550390362739563, -0.5771183967590332, -0.5817133188247681, -0.8809725046157837, -0.5276178121566772, -0.7185029983520508, -0.5913119316101074, -0.8152581453323364, 1.9724125862121582, 1.172102689743042, -0.6643185615539551, 0.05793042853474617, 1.5920144319534302, 0.6219968199729919, 1.6568999290466309, 0.8296228647232056, 1.97904372215271, 1.350239872932434, 0.3323090076446533, 1.1758438348770142, 1.9141875505447388, 0.8372278809547424, 1.0464324951171875, -0.09497849643230438, 1.5528677701950073, 0.3782961368560791, -0.44678938388824463, 1.5927834510803223, 1.1035126447677612, 0.6242585182189941, -0.278460830450058, -1.9700660705566406, 1.9379254579544067, 1.3026469945907593, 0.5425454378128052, 0.824508011341095, 0.6623947024345398, -1.1798659563064575, 0.5053281188011169, -1.9800000190734863, 1.97214674949646, 0.4859280288219452, 0.47814515233039856, 0.43258652091026306, 0.36215272545814514, -0.48729613423347473, -1.6677687168121338, -1.9800000190734863, 1.5421854257583618, 0.7144757509231567, 0.4367249310016632, 0.09392886608839035, -0.12131809443235397, -0.36894530057907104, -0.1732521653175354, -1.9574253559112549, 0.8998848795890808, 0.5269255042076111, 0.8614041805267334, 0.37382930517196655, 0.2840111255645752, 0.10225312411785126, 0.10017356276512146, -0.004873615223914385, 1.2783946990966797, 0.8215271830558777, 0.4691498875617981, 0.10635064542293549, 0.23304912447929382, 0.31641343235969543, 0.32453256845474243, 0.18015936017036438], [0.03116878867149353, 0.0009658187627792358, -0.03373681381344795, 0.025877393782138824, -0.010962631553411484, -0.03381509706377983, 0.020491372793912888, 0.024107608944177628, -0.00661538727581501, -0.03354382887482643, -0.023273343220353127, 0.011496368795633316, 0.07917643338441849, 0.05926847085356712, -0.003044155426323414, -0.010681696236133575, 0.007235955446958542, -0.05309202894568443, -0.06032069772481918, 0.014773469418287277, 0.02233724109828472, 0.028606154024600983, -0.023038389161229134, -0.016505755484104156, -0.04646334797143936, -0.03285437822341919, -0.056022170931100845, 0.03913513571023941, 0.39583829045295715, 0.06567374616861343, -0.03572354465723038, -0.01002367865294218, 0.006056548096239567, 0.016480006277561188, -0.010528717190027237, 0.11412526667118073, 0.5276958346366882, 0.23645390570163727, 0.009947549551725388, -0.02799208275973797, 0.05047580972313881, 0.04629569873213768, -0.056984707713127136, 0.3815922439098358, 0.9717923402786255, 0.4112488627433777, 0.02217257022857666, 0.0006398645928129554, 0.06983305513858795, 0.12136131525039673, 0.015420871786773205, 0.5319229364395142, 1.2772363424301147, 0.3922647535800934, -0.00395791744813323, 0.06785032898187637, -0.005697837099432945, 0.021717343479394913, 0.0347161665558815, 0.01530294120311737, 0.0357920378446579, 0.017100583761930466, -0.02376440539956093, -0.030290964990854263, -0.015048087574541569, -0.14609375596046448, -0.2037818878889084, -0.24443422257900238, -0.04190131649374962, -0.21758908033370972, -0.23976434767246246, -0.24479475617408752, -0.09282990545034409, -0.11449756473302841, -0.09553676098585129, -0.09196089953184128, -0.09523293375968933, -0.09776635468006134, -0.07164033502340317, -0.038904689252376556, -0.30056482553482056, -0.11679302901029587, -0.038494158536195755, -0.126250758767128, -0.08647755533456802, -0.09408726543188095, 0.04752857983112335, -0.22472451627254486, -0.06286324560642242, -0.12549206614494324, -0.06069782376289368, -0.08350805938243866, 0.017116069793701172, -0.012100262567400932, -0.02880154363811016, -0.015743616968393326, -0.09954747557640076, -0.025759167969226837, -0.1317359209060669, -0.013845307752490044, -0.011840052902698517, -0.10427836328744888, -0.04816621169447899, 0.007519172504544258, -0.17408794164657593, -0.11558424681425095, -0.030548639595508575, 0.03862401843070984, -0.019679320976138115, 0.024502228945493698, 0.06714815646409988, -0.15946851670742035, -0.34598419070243835, -0.10338949412107468, 0.0879720151424408, -0.026183610782027245, -0.8044948577880859, 0.0033685569651424885, 0.05572647973895073, -0.059121690690517426, -0.44043806195259094, -0.517419159412384, -0.004264098592102528, -0.035609230399131775, 0.004936744458973408, 0.014601348899304867, -0.4838584363460541, 0.016612455248832703, -0.127179354429245, -0.14043869078159332, -0.03989766538143158, -0.1198417916893959, -0.16324947774410248, -0.034407660365104675, -0.05774535611271858, -0.10301875323057175, -0.05049693584442139, -0.1027127131819725, -0.12841609120368958, -0.11261821538209915, -0.07817494124174118, -0.07121292501688004, -0.07531487196683884, -0.1266344040632248, -0.09253059327602386, -0.06620704382658005, -0.06313123553991318, -0.05507104471325874, -0.07177310436964035, -0.01863240636885166, -0.08875062316656113, -0.09226206690073013, -0.038666341453790665, 0.0010344631737098098, -0.07814865559339523, -0.008709976449608803, -0.09551233053207397, 0.04190710559487343, -0.026327572762966156, -0.03034196048974991, -0.04659648612141609, -0.008667519316077232, 0.05802267789840698, -0.02675112895667553, 0.026457808911800385, -0.05378802865743637, 0.03202657774090767, -0.025657102465629578, -0.3240319490432739, -0.05982076749205589, -0.0017102137207984924, 0.05659712105989456, -0.079081229865551, -0.10293640196323395, 0.06444842368364334, -0.11016717553138733, -0.06616535037755966, -0.07481890916824341, -0.01194457896053791, -0.001804465427994728, 0.005004656035453081, 0.014830452390015125, -0.03994949907064438, -0.16325734555721283, -0.1338280588388443, -0.2517786920070648, -0.15530791878700256, -0.027272086590528488, -0.1456597000360489, -0.05573761463165283, -0.10024847835302353, -0.028348661959171295, 0.009543480351567268, 0.005498599261045456, -0.056348323822021484, 0.09079624712467194, 0.19781342148780823, 0.10177493095397949, 0.059055399149656296, 0.01108887605369091, -0.0344860702753067, -0.0452292338013649, -0.015735387802124023, 0.08026933670043945, 0.1667134165763855, 0.07663150131702423, -0.01671016588807106, -0.046173952519893646, -0.009331817738711834, -0.07196250557899475, -0.03033074177801609, 0.08002632111310959, 0.11152973026037216, 0.004533571191132069, -0.01622246950864792, -0.06723624467849731, -0.05058765038847923, -0.06595880538225174, -0.07351094484329224, 0.025271441787481308, 0.07610119134187698, 0.027735654264688492, 0.04437346011400223, -0.059123191982507706, -0.08895186334848404, -0.11118493974208832, -0.02288081869482994, 0.06165746599435806, 0.032327260822057724, 0.030850248411297798, 0.004598013591021299, -0.06319139897823334, -0.12331707775592804, -0.12133350223302841, -0.10248539596796036, 0.0004771650128532201, -0.09555397182703018, -0.09386708587408066, -0.11851116269826889, -0.15354247391223907, -0.05718251317739487, -0.08071394264698029, -0.11663404107093811, -0.006101020611822605, -0.19059111177921295, -0.07465819269418716, -0.08153996616601944, -0.22019147872924805, 0.0038576817605644464, 0.020965203642845154, 0.05681624263525009, 0.04573653265833855, -0.434281587600708, 0.013010989874601364, -0.04045078158378601, -0.05120811238884926, -0.14482876658439636, -0.23982979357242584, -0.25666701793670654, 0.02706192247569561, 0.15552394092082977, 0.03581075370311737, -0.022717520594596863, -1.9795798063278198, -0.12305143475532532, -0.09087599813938141, 0.0560135580599308, 0.09084489941596985, -1.7461514472961426, 0.11241888999938965, -1.9800000190734863, -1.882781744003296, -0.2582642734050751, -0.01039506308734417, -0.02667342685163021, 0.1325269192457199, 0.1603911966085434, 0.06909883767366409, 0.018527857959270477, -0.1339062750339508, 0.12235336750745773, 0.00911932997405529, -0.020220085978507996, 0.11729472130537033, 0.1661759465932846, 0.1376035064458847, 0.04833030700683594, -0.1168251633644104, -0.14302468299865723, 0.09328075498342514, 0.08022318035364151, 0.13331598043441772, 0.007097391877323389, 0.1515154391527176, 0.10293669998645782, 0.08293376863002777, -0.11658070981502533, 0.03483070433139801, -0.011412173509597778, 0.052162811160087585, 0.1368054896593094, 0.10625253617763519, 0.11507634073495865, -0.005788399837911129, -0.06606133282184601, -0.19760562479496002, -0.05040373280644417, 0.12431827932596207, 0.11081359535455704, 0.07743068039417267, -0.05680292844772339, -0.23184026777744293, -0.08059976249933243, 0.14288030564785004, -0.15147057175636292, 0.080951988697052, -0.018392426893115044, 0.05809048190712929, -0.23791147768497467, -1.9516291618347168, 1.4399875402450562, 1.3508328199386597, 1.411737084388733, 1.4590013027191162, 1.4242541790008545, 1.452852487564087, 1.4169944524765015, 1.36527419090271, 1.3630754947662354, 1.4221973419189453, 1.4146445989608765, 1.4618654251098633, 1.485127329826355, 1.497663974761963, 1.4474574327468872, 1.448179841041565, 1.394153118133545, 1.3764026165008545, 1.4648483991622925, 1.5265872478485107, 1.5448273420333862, 1.5144250392913818, 1.4880013465881348, 1.3768999576568604, 1.3654086589813232, 1.4439287185668945, 1.5158096551895142, 1.607656717300415, 1.6136035919189453, 1.609634518623352, 1.5666488409042358, 1.4921913146972656, 1.427432894706726, 1.5879294872283936, 1.6367545127868652, 1.7436578273773193, 1.7150764465332031, 1.684853434562683, 1.6810855865478516, 1.510099172592163, 1.4662970304489136, 1.5805227756500244, 1.6971054077148438, 1.7424887418746948, 1.7047947645187378, 1.6805049180984497, 1.705000877380371, 1.4548470973968506, 1.548603892326355, 1.7240318059921265, 1.7239564657211304, 1.7656364440917969, 1.676729440689087, 1.6983990669250488, 1.6684457063674927, 1.653428077697754, 1.4870221614837646, 1.6694777011871338, 1.716373324394226, 1.67842435836792, 1.5434166193008423, 1.662624478340149, 1.6732579469680786, 1.5823534727096558, 0.02002665400505066, -0.033520184457302094, -0.019706612452864647, -0.009716080501675606, 0.030879952013492584, -0.00012841075658798218, -0.004487097263336182, 0.010722097009420395, -0.1465325504541397, -0.21717128157615662, -0.1534155160188675, -0.24889667332172394, -0.31767767667770386, -1.9762768745422363, -0.2337435930967331, -0.27474841475486755, -0.024768833070993423, -0.050643227994441986, -0.055486638098955154, -0.15669123828411102, -0.07257536053657532, -0.14321838319301605, -0.051261287182569504, -0.06060659512877464, 0.04708292707800865, 0.03912164270877838, -0.017245719209313393, -0.030863825231790543, 0.009454027749598026, -0.014222856611013412, 0.04916682094335556, 0.0051986719481647015, 0.0664137527346611, 0.07059577107429504, 0.0452578105032444, 0.017049536108970642, -0.3253476023674011, -0.027855558320879936, 0.05696263164281845, 0.04076622799038887, 0.07961197942495346, 0.10874395817518234, 0.08920218050479889, -0.11041601002216339, -1.9800000190734863, -0.1991392970085144, 0.043812345713377, 0.07410593330860138, 0.06622622907161713, 0.09068561345338821, 0.0468653105199337, -0.5134527087211609, -1.406896710395813, -0.41166120767593384, 0.0409340038895607, 0.08520404249429703, 0.024264071136713028, 0.023388467729091644, -0.004691667854785919, 0.0075394511222839355, -0.01974334381520748, -0.010960789397358894, -0.0234299935400486, 0.020069923251867294, 0.07493355870246887, 0.022025788202881813, -0.01225334219634533, -0.06400632858276367, 0.01036535482853651, -0.09273222833871841, -0.04120746999979019, 0.04713873192667961, 0.06702854484319687, 0.013879852369427681, -0.10202574729919434, -0.022144213318824768, -0.06522754579782486, -0.06041473522782326, -0.059745535254478455, -0.2046588659286499, -0.043231021612882614, -0.08953830599784851, -0.08286674320697784, -0.14349965751171112, -0.13164715468883514, -0.13055217266082764, -0.03676443174481392, -0.0795602798461914, -0.07014849781990051, -0.18406040966510773, -0.14982794225215912, -0.20801718533039093, -0.06804216653108597, -0.2106052041053772, -0.1610403060913086, -0.12905041873455048, -0.1140172928571701, -0.2687950134277344, -0.13635410368442535, -0.40392765402793884, -0.24128608405590057, -0.5110016465187073, -0.3293114900588989, -0.2582719326019287, -0.06458290666341782, -0.13225187361240387, -0.6543117165565491, -0.40838107466697693, -0.3937496840953827, -0.544942319393158, -0.6781532168388367, -0.26519912481307983, -0.0873686820268631, -0.21317432820796967, -0.8158851265907288, -0.10969609022140503, -0.7832353115081787, -0.17014940083026886, -1.219935655593872, -0.33212557435035706, -0.2219974547624588, -0.12466029077768326, -0.7515479922294617, -0.19083596765995026, -0.6882762908935547, -0.08585401624441147, -0.7838953137397766, -0.49545952677726746, -0.24399606883525848, -0.2467932403087616, -0.1961877942085266, -0.22750025987625122, -0.13376225531101227, -0.06453725695610046, -0.1066751703619957, -0.14592504501342773, -0.39368030428886414, -0.20086853206157684, -0.1992691159248352, -0.06297088414430618, -0.12686654925346375, -0.15057528018951416, -0.11644682288169861, -0.14668641984462738, -0.6311629414558411, -0.37294802069664, -0.2134467214345932, -0.11853326857089996, -0.08456223458051682, -0.14780254662036896, -0.17252330482006073, -0.23207871615886688, -1.0015681982040405, -0.539276659488678, -0.3473076820373535, -0.1841966062784195, -0.12348680198192596, -0.1530258059501648, -0.3790947198867798, -0.6877207159996033, -0.21762870252132416, -1.195642352104187, -0.6342495083808899, -0.3230683505535126, -0.30559179186820984, -0.3077675700187683, -0.6676796674728394, -1.1373058557510376, -0.07841154932975769, -0.11927267909049988, -0.8569629192352295, -0.6247811913490295, -1.9800000190734863, -1.5706771612167358, -1.892441749572754, -0.11350094527006149, 0.0035454535391181707, -0.046687375754117966, -0.16275529563426971, -1.3854202032089233, -1.4123756885528564, -1.6567431688308716, -0.06807184964418411, -0.079434834420681, -0.025558285415172577, -0.06884603947401047, -0.27755042910575867, -1.5880473852157593, -1.9800000190734863, -0.6558064818382263, -0.3730018138885498, -0.18882183730602264, -0.16130326688289642, -0.08503275364637375, -0.0969107449054718, -0.12294939905405045, -0.43684178590774536, -0.10736940056085587, -0.13091349601745605, -0.10094711929559708, -0.0978534147143364, -0.10653132200241089, -0.12040122598409653, -0.15053968131542206, -0.4765016436576843, -0.13106027245521545, -0.07536254078149796, -0.12358306348323822, -0.09741325676441193, -0.07816381007432938, -0.10119640082120895, -0.12700232863426208, -0.3915491998195648, -0.1554463654756546, -0.10167834162712097, -0.10123040527105331, -0.1138744205236435, -0.06179385259747505, -0.06084146350622177, -0.09622199088335037, -0.4676942527294159, -0.10942909866571426, -0.08961300551891327, -0.11067387461662292, -0.17609494924545288, -0.10760847479104996, -0.07125740498304367, -0.10643111914396286, -0.47646331787109375, -0.13593171536922455, -0.08080966770648956, -0.08850155025720596, -0.22450652718544006, -0.1444341391324997, -0.10440413653850555, -0.04955598711967468, -0.7855254411697388, -0.12666340172290802, -0.10174154490232468, -0.10790953785181046, -0.3213261365890503, -0.2458372265100479, -0.267822802066803, -0.13329976797103882, -0.5727244019508362, -0.15954850614070892, -0.2587100565433502, -0.2724837362766266, -0.3719714879989624, -0.33049967885017395, -0.2503787577152252, -0.15401677787303925, -0.7284871935844421, -0.17749588191509247, -0.3215654790401459, -0.3403266370296478, -0.23344682157039642, -0.4125896394252777, -0.292782723903656, -0.3277238607406616, -0.3403750956058502, -0.31025418639183044, -0.25862374901771545, -0.3364168107509613, -0.29090267419815063, -0.35531294345855713, -0.24374663829803467, -0.37067002058029175, -0.3819630444049835, -0.3874410092830658, -0.35105353593826294, -0.3223205506801605, -0.3220820426940918, -0.2862870991230011, -0.2796694338321686, -0.30780816078186035, -0.3913958966732025, -0.37083548307418823, -0.37115171551704407, -0.41994932293891907, -0.3422156274318695, -0.3492889702320099, -0.3102576732635498, -0.27175435423851013, -0.411235511302948, -0.2625022232532501, -0.3159855008125305, -0.36146029829978943, -0.4056362509727478, -0.4247252941131592, -0.3607000410556793, -0.32204669713974, -0.4484044909477234, -0.3519757091999054, -0.36298173666000366, -0.42785176634788513, -0.26130273938179016, -0.2831819951534271, -0.4086160659790039, -0.2709934115409851, -0.6204957962036133, -0.3067764639854431, -0.30364611744880676, -0.31491389870643616, -1.5748977661132812, -0.3163151741027832, -0.3787772059440613, -0.4356376528739929, -0.45225948095321655, -0.44206270575523376, -0.32831770181655884, -0.2170812040567398, -0.3434879183769226, -0.4105968773365021, -0.24055123329162598, -0.45952683687210083, -0.222396120429039, -0.31259408593177795, -0.41134172677993774, -0.32518067955970764, 1.679791808128357, 1.7437670230865479, 1.7939491271972656, 1.7951452732086182, 1.7787086963653564, 1.7576881647109985, 1.7978453636169434, 1.7142740488052368, 1.7021006345748901, 1.7086011171340942, 1.7728357315063477, 1.7527341842651367, 1.8297806978225708, 1.7575117349624634, 1.76969313621521, 1.7740341424942017, 1.7527201175689697, 1.699240803718567, 1.7017464637756348, 1.7597543001174927, 1.7531577348709106, 1.732359528541565, 1.7433857917785645, 1.7884678840637207, 1.717963457107544, 1.7432236671447754, 1.709277868270874, 1.7018687725067139, 1.691558599472046, 1.7124146223068237, 1.759047269821167, 1.7787100076675415, 1.7765593528747559, 1.7493702173233032, 1.6576199531555176, 1.5524519681930542, -1.7284353971481323, 1.504150390625, 1.6339236497879028, 1.7709434032440186, 1.8088486194610596, 1.7192656993865967, 1.578981876373291, 1.107651710510254, -1.9430299997329712, 1.0171470642089844, 1.498123288154602, 1.6804382801055908, 1.7652387619018555, 1.741164207458496, 1.4850554466247559, -1.944824457168579, -0.6988998651504517, -1.9800000190734863, 1.433318853378296, 1.6700971126556396, 1.8134090900421143, 1.7320218086242676, 1.4994359016418457, 0.23985600471496582, -1.8554625511169434, 0.7052615284919739, 1.4539662599563599, 1.6607871055603027], [-0.00851905345916748, 0.019434399902820587, -0.009082898497581482, -0.024948645383119583, -0.027222640812397003, -0.026417262852191925, 0.020521774888038635, 0.023009154945611954, 0.00717047369107604, -0.004003233276307583, -0.03369344025850296, -0.029967933893203735, -0.012715786695480347, -0.1354910135269165, -0.024196743965148926, -0.024083958938717842, 0.015754269436001778, -0.023412857204675674, -0.022416427731513977, -0.0775475949048996, -0.21922779083251953, -0.1379438191652298, -0.037242282181978226, -0.03241383656859398, -0.0017384106758981943, -0.052472274750471115, -0.0705719143152237, -0.14360469579696655, -0.20834432542324066, -0.09635252505540848, -0.018056081607937813, -0.030354248359799385, 0.032349999994039536, -0.012943617068231106, -0.002545816358178854, -0.13085292279720306, -0.3149898052215576, -0.06384069472551346, 0.05281247943639755, 0.04923137277364731, 0.08865828812122345, 0.0923585295677185, 0.07326649874448776, -0.011988623067736626, -0.1233493983745575, -0.008635618723928928, 0.13417427241802216, 0.12267330288887024, 0.07039353251457214, 0.1688295304775238, 0.08981213718652725, -1.5054794549942017, 0.3738059401512146, -1.3737646341323853, 0.05178987979888916, 0.05427037551999092, 0.027470044791698456, 0.016282711178064346, 0.033772990107536316, -0.030690079554915428, -0.018257886171340942, -0.02517332322895527, 0.0016320757567882538, -0.008290523663163185, 0.09870579838752747, 0.003049951745197177, -0.022170718759298325, -0.036654893308877945, 0.0021994062699377537, -0.06757214665412903, -0.034769508987665176, -1.9800000190734863, -0.06696230173110962, -0.05361929163336754, -0.03512603044509888, -0.05698034167289734, -0.03014889545738697, -0.07733681797981262, -0.07691826671361923, -0.02805112674832344, -0.10356981307268143, 0.012733562849462032, -0.027114974334836006, -0.03499935567378998, -0.08711231499910355, -0.03360710293054581, -0.06317618489265442, -0.08571480214595795, 1.2566772056743503e-05, -0.029088225215673447, -0.061471112072467804, -0.01287756860256195, -0.09913522005081177, -0.022748932242393494, -0.06086691841483116, 0.0429970808327198, 0.027810823172330856, -0.0797341912984848, -0.011553010903298855, -0.052957579493522644, -0.005941162351518869, 0.0636892318725586, 0.05252700671553612, -0.12851117551326752, -0.10064341127872467, 0.007579458877444267, 0.14770379662513733, -1.8459233045578003, 0.09036265313625336, -1.2615551948547363, 0.3374287188053131, -0.09630690515041351, -0.05651773884892464, -0.06784366071224213, -1.5633783340454102, 0.0902898982167244, 0.0018714172765612602, 0.09841549396514893, -0.6592652797698975, 0.012916372157633305, 0.013241564854979515, 0.17457576096057892, 0.014703475870192051, 0.06938247382640839, -1.642702579498291, -1.7475800514221191, 0.02347894199192524, 0.24262118339538574, -0.04193669185042381, 0.0024842550046741962, 0.030733376741409302, -0.05344518646597862, 0.042816855013370514, -0.016274889931082726, -0.1811816245317459, -0.003624263219535351, -0.07510252296924591, -0.016814790666103363, -0.05311547592282295, -0.021392639726400375, -0.03180891275405884, -0.13843703269958496, 0.011299492791295052, -0.07696246355772018, 0.12319538742303848, -0.06007711961865425, -0.05087262764573097, -0.035012416541576385, -0.047788672149181366, -0.054274387657642365, -0.007499974686652422, -0.010325558483600616, -0.26938191056251526, 0.09049713611602783, -0.07269827276468277, -0.06354048103094101, 0.05895145982503891, -0.004443026147782803, -0.047673631459474564, 0.06593229621648788, 0.005283799488097429, -0.3880385756492615, 0.08811955153942108, -0.15177403390407562, 0.030197305604815483, 0.04416876658797264, 0.09127562493085861, -0.28883591294288635, -0.055845629423856735, 0.0034165766555815935, -1.8235254287719727, 0.11947263777256012, 0.00311136431992054, 0.06531568616628647, -1.6523802280426025, 0.06790051609277725, 0.08172498643398285, -0.06633459776639938, -0.01478538103401661, -1.6593459844589233, 0.1636412888765335, -1.5948888063430786, 0.10230835527181625, -0.039894912391901016, -0.035868413746356964, 0.07035093009471893, -0.019394345581531525, 0.007530903443694115, -1.9379186630249023, 0.08339837938547134, -0.09698650240898132, -0.14734630286693573, 0.029134476557374, 0.028826003894209862, 0.06830582022666931, 0.04569995030760765, 0.055730998516082764, 0.06169172748923302, 0.07170245051383972, 0.016352122649550438, 0.06966695189476013, 0.01855485327541828, 0.016609566286206245, 0.05137372389435768, -0.02002997323870659, 0.014695286750793457, 0.08927087485790253, 0.05390966311097145, -0.0001785064087016508, 0.03679676726460457, 0.1012561023235321, 0.05180450901389122, -0.05570102855563164, 0.08263231068849564, -0.00614231638610363, 0.0659884437918663, 0.045915525406599045, 0.025364631786942482, 0.06962839514017105, 0.08016654849052429, -0.07460285723209381, 0.008126719854772091, 0.06042877212166786, 0.0521908737719059, 0.060246024280786514, 0.08792710304260254, 0.10624418407678604, 0.053434137254953384, 0.045832596719264984, 0.09003421664237976, 0.12784673273563385, 0.09045019000768661, 0.11221741884946823, 0.07032564282417297, 0.09925545752048492, 0.1410309374332428, 0.09287427365779877, 0.20224155485630035, 0.19540813565254211, 0.15707002580165863, 0.10765494406223297, 0.11113553494215012, 0.11499834805727005, 0.102796271443367, 0.2039332240819931, 0.19403071701526642, 0.20733210444450378, 0.11737718433141708, 0.169844388961792, 0.1825954020023346, 0.08199656754732132, 0.06364595890045166, 0.18915888667106628, 0.07501871883869171, 0.13086500763893127, 0.17227280139923096, 0.17268159985542297, 0.12854580581188202, 0.16604465246200562, 0.12240590900182724, 0.32678452134132385, 0.1242704913020134, 0.1682935208082199, -0.012664987705647945, -0.01652047038078308, 0.14382484555244446, 0.17748622596263885, 0.17358674108982086, 0.3369044065475464, 0.15394093096256256, 0.19111046195030212, 0.21570269763469696, 0.161848783493042, 0.14899545907974243, 0.18495984375476837, 0.1954498291015625, 0.29567983746528625, 0.15209844708442688, 0.19709838926792145, 0.27032750844955444, 0.04804464802145958, 0.1446370929479599, 0.22395870089530945, 0.21651330590248108, 0.3572841286659241, 0.18540826439857483, 0.2963070273399353, 0.28391894698143005, 0.1663268804550171, 0.052791330963373184, 0.28446412086486816, 0.32989171147346497, 0.4613865911960602, 0.3170778155326843, 0.32810816168785095, 0.12117316573858261, 0.19659338891506195, 0.2502915561199188, 0.021007802337408066, 0.4347669184207916, 0.5365901589393616, 0.43474528193473816, -0.007541588973253965, 0.2364015281200409, 0.2567693293094635, 0.2854079008102417, 0.32511666417121887, 0.09922110289335251, 0.5623725652694702, 0.19827936589717865, 0.4494313597679138, 0.35496410727500916, 0.037914395332336426, 0.36117857694625854, 0.32726916670799255, 0.42607423663139343, 0.3612687587738037, 0.4674527645111084, 0.38200947642326355, 0.23756533861160278, 0.08636541664600372, 0.05398306995630264, 0.0841846615076065, 0.08938305824995041, 0.18891999125480652, 0.08906225860118866, 0.09812504798173904, 0.06929177790880203, 0.011010629124939442, 0.08072230219841003, 0.08870409429073334, 0.11037176847457886, 0.24290382862091064, 0.06566428393125534, 0.04809071496129036, 0.07778151333332062, 0.060931745916604996, 0.1636393666267395, 0.16322098672389984, 0.25550445914268494, 0.24541418254375458, 0.1382669061422348, 0.11628737300634384, 0.06907887011766434, 0.1595195084810257, 0.20513197779655457, 0.26052168011665344, 0.2791092097759247, 0.2675471901893616, 0.2571200728416443, 0.20916692912578583, 0.17277339100837708, -1.2812803983688354, 0.2457675188779831, 0.3186425566673279, 0.39863061904907227, 0.41886693239212036, 0.4209461510181427, 0.30573028326034546, 0.27091047167778015, -0.009691032581031322, 0.21490420401096344, 0.2885870337486267, 0.424547404050827, 0.4697972238063812, 0.43319615721702576, 0.34390878677368164, 0.1710953265428543, 0.061503101140260696, 0.2050151377916336, 0.24230946600437164, 0.32562652230262756, 0.41902533173561096, 0.31932520866394043, 0.25749823451042175, -0.007157357409596443, 0.2375887781381607, 0.09083426743745804, 0.16874445974826813, 0.23457221686840057, 0.3650864362716675, 0.2884455919265747, 0.3018181324005127, -0.07187299430370331, 0.01537291705608368, -0.016205044463276863, -0.024078499525785446, 0.02185831591486931, 0.0005739480257034302, 0.01516137644648552, 0.0144733227789402, 0.010345950722694397, 0.0418105311691761, -0.012516229413449764, -0.15993373095989227, -0.01908477209508419, -0.3513810932636261, -0.04912114143371582, 0.02674054726958275, 0.019649453461170197, -0.06192862614989281, -0.006662952713668346, -0.054816655814647675, -0.08783753216266632, -0.21667474508285522, -0.04394376650452614, 0.04004434496164322, 0.010321266949176788, -0.05618143081665039, -0.02216869220137596, 0.012756225652992725, -0.03543812781572342, -0.27800601720809937, -0.018770964816212654, 0.053108297288417816, -0.05738776549696922, -0.03953998535871506, 0.017961738631129265, 0.026119690388441086, -0.09887301921844482, -0.34751108288764954, 0.0049097915180027485, 0.03649089112877846, -0.03654102236032486, -0.031018966808915138, 0.01557156816124916, -0.0037501282058656216, -0.10228820145130157, -0.7363398671150208, -0.04899022355675697, 0.003598365932703018, -0.025618670508265495, -0.043961524963378906, -0.009444371797144413, 0.0022953685838729143, 0.01512844581156969, -1.9779374599456787, -0.015979144722223282, 0.046343348920345306, -0.03676089271903038, 0.027766704559326172, 0.013993695378303528, -0.017811797559261322, -0.0020152591168880463, 0.014320209622383118, 0.00034240633249282837, 0.00677645206451416, 0.01418348029255867, 0.007080264389514923, -0.023642124608159065, 0.04328197240829468, 0.1114538162946701, 0.07549081742763519, -0.01146287377923727, 0.0322953499853611, -0.000569715048186481, -0.07750607281923294, 0.14147084951400757, 0.06962024420499802, 0.00018975688726641238, -0.029985975474119186, 0.09485630691051483, 0.13252504169940948, 0.013549095019698143, 0.16334712505340576, 0.026925209909677505, 0.04694438725709915, 0.011601335369050503, -0.14758196473121643, 0.0007863225764594972, 0.048158153891563416, 0.06910654902458191, 0.07032457739114761, 0.0054525211453437805, 0.030905522406101227, -0.008985284715890884, -0.03137584030628204, -0.07329811900854111, 0.04764919355511665, 0.08873075991868973, 0.05239171162247658, 0.06661927700042725, 0.02227366901934147, 0.0027931148651987314, -0.09423938393592834, 0.010334121063351631, 0.0383526012301445, 0.0614890493452549, 0.07640892267227173, 0.06910267472267151, -0.04355834424495697, 0.03635045140981674, -0.24558180570602417, 0.050293467938899994, -0.06835544109344482, -0.002565850270912051, 0.04173779487609863, 0.05145721510052681, -0.014837072230875492, 0.08001676201820374, -1.9800000190734863, 0.03537798300385475, -0.012218303978443146, 0.05102331563830376, 0.062043339014053345, 0.10301384329795837, -0.0049650478176772594, 0.01794489286839962, -0.015569404698908329, 0.014866306446492672, 0.12434722483158112, -0.04744558036327362, 0.05350987985730171, 0.03445295989513397, -0.03004877269268036, -0.004275299143046141, 0.009540130384266376, 0.03549192100763321, -0.026119600981473923, 0.09299830347299576, -0.02513052150607109, 0.03169197216629982, 0.014193476177752018, 0.04660462960600853, 0.12701104581356049, -0.002019457286223769, -0.05961822718381882, 0.017680197954177856, 0.04124835506081581, -0.01654067449271679, -0.009116683155298233, 0.018801862373948097, -0.13763833045959473, -0.0567546971142292, 0.06726846098899841, -0.07045401632785797, 0.08752959966659546, 0.005238308571279049, -0.005574570037424564, -0.02402503974735737, -0.18870693445205688, -0.01822669804096222, -0.056751783937215805, 0.08554087579250336, 0.04707148298621178, 0.04619308188557625, -0.007682444527745247, -0.09744460135698318, -0.14970643818378448, -0.0037935927975922823, 0.033351607620716095, 0.026171399280428886, 0.055760521441698074, -0.0027046282775700092, 0.0014438597718253732, -0.021826675161719322, -0.1935516893863678, 0.009332680143415928, 0.020336980000138283, 0.03395707160234451, 0.05864696949720383, -0.023692453280091286, 0.010865449905395508, -0.01883765310049057, -0.21861077845096588, 0.019038403406739235, 0.04065274819731712, -0.022958509624004364, -0.02879895083606243, 0.04166794195771217, 0.027218319475650787, 0.03140902891755104, 0.0703003853559494, 0.13957075774669647, -0.08616983145475388, 0.02227618545293808, 0.07362775504589081, 0.08810439705848694, 0.05274839699268341, 0.061211779713630676, 0.05438021942973137, 0.020736610516905785, 0.08480197936296463, 0.10166002064943314, -0.005143578164279461, 0.042103029787540436, 0.02172556146979332, 0.09403933584690094, 0.006846539676189423, 0.06808394938707352, 0.029782669618725777, 0.0447956845164299, 0.06462032347917557, 0.05652773007750511, 0.044154778122901917, 0.09445614367723465, 0.05633806809782982, 0.044898487627506256, 0.06304097175598145, 0.07271648943424225, 0.032995328307151794, -0.03387850895524025, 0.06812328100204468, 0.013118536211550236, -0.05964638665318489, 0.0012666149996221066, 0.06361770629882812, 0.028248434886336327, 0.04437796771526337, 0.053572896867990494, 0.015672283247113228, -0.002917542355135083, -0.04109829291701317, 0.04631189629435539, 0.005143459420651197, 0.019573302939534187, 0.06696827709674835, 0.011084393598139286, 0.01440474670380354, 0.0511721633374691, -0.08436206728219986, 0.0021050821524113417, 0.03125647082924843, 0.06734564155340195, 0.08272816240787506, 0.05409863218665123, 0.012138297781348228, -0.019796807318925858, -0.06544887274503708, -0.017236914485692978, 0.02850959450006485, 0.005498588550835848, 0.019815409556031227, 0.021828802302479744, 0.040337130427360535, 0.03234801068902016, 1.083869457244873, 0.050706375390291214, 0.01027129776775837, 0.026495110243558884, -0.2862737774848938, -0.16508816182613373, -0.2077743411064148, -0.2385883927345276, -0.35225844383239746, -0.26940858364105225, -0.4262743294239044, -0.22068938612937927, -0.16332024335861206, -0.21948464214801788, -0.20782601833343506, -0.1665617674589157, -0.36270493268966675, -0.1554735004901886, -0.21315306425094604, -0.12102679908275604, -0.11610835045576096, -0.18826833367347717, -0.23352083563804626, -0.18604202568531036, -0.37556448578834534, -0.24293312430381775, -0.173141211271286, -0.18908663094043732, -0.0862051472067833, -0.16996721923351288, -0.18962346017360687, -0.16829638183116913, -0.4594144821166992, -0.20417647063732147, -0.18841978907585144, -0.12700007855892181, -0.14183980226516724, -0.13627612590789795, -0.1431696116924286, -0.1853259652853012, -0.3793641924858093, -0.1518152952194214, -0.11834992468357086, -0.14049851894378662, -0.07207361608743668, -0.12852349877357483, -0.10144206881523132, -0.17789632081985474, -0.42034056782722473, -0.18283718824386597, -0.18059509992599487, -0.11577220261096954, -0.13061116635799408, -0.16973474621772766, -0.14712314307689667, -0.1449645310640335, -0.4093818664550781, -0.17688153684139252, -0.23551152646541595, -0.1573992818593979, -0.12794534862041473, -0.10082493722438812, -0.07983165979385376, -0.07006527483463287, 0.6540437936782837, -0.14537271857261658, -0.24721261858940125, -0.17235355079174042, 0.9673768281936646, 1.1211743354797363, 1.0788289308547974, 0.9742330312728882, 0.990515410900116, 1.0206084251403809, 1.0438861846923828, 0.8729895949363708, 1.0123295783996582, 1.0320624113082886, 0.9656245112419128, 1.008848786354065, 0.9706481695175171, 1.0422807931900024, 1.033013105392456, 0.9811891913414001, 1.0976366996765137, 0.9755245447158813, 0.8666541576385498, 0.861595094203949, 0.7893648147583008, 0.9740450978279114, 1.0833901166915894, 1.0494946241378784, 1.0437268018722534, 1.0199798345565796, 0.9386866092681885, 0.7552081346511841, 0.6997216939926147, 0.8213430047035217, 1.0570582151412964, 1.0997469425201416, 1.1258959770202637, 1.0288230180740356, 0.9737916588783264, 0.8733571767807007, -1.321370005607605, 0.8412904739379883, 0.9797115921974182, 0.9518393278121948, 1.160558819770813, 1.0106862783432007, 0.9648973941802979, 0.8714278340339661, -1.873510479927063, 0.880095362663269, 0.9820141196250916, 1.0196212530136108, 0.9734737873077393, 1.0240678787231445, 0.9292746782302856, 0.857437789440155, -1.9066154956817627, 0.8659897446632385, 1.0109052658081055, 0.9844810962677002, 1.024229645729065, 0.9813169836997986, 0.9881065487861633, 0.9166064262390137, -0.15634509921073914, 0.9662539958953857, 0.9903189539909363, 0.9930403828620911], [-0.008266709744930267, 0.0029047466814517975, -0.023571055382490158, 0.03468085825443268, -0.032232705503702164, -0.014204118400812149, -0.006607357412576675, 0.01794087141752243, -0.04631482809782028, -0.3805243968963623, -0.10772114992141724, 0.054279983043670654, -0.03413380682468414, -0.07259982824325562, 0.00629891874268651, -0.0024535125121474266, -0.07993413507938385, -0.40140584111213684, -0.06504068523645401, -0.03186125308275223, -0.031086599454283714, -0.0540795624256134, -0.018750963732600212, -0.021762743592262268, -0.17821004986763, -0.48431459069252014, -0.14557084441184998, 0.048641104251146317, 0.01210588589310646, -0.05603398010134697, 0.07998955249786377, 0.1121637150645256, -0.03739669546484947, 0.055066850036382675, -0.140654057264328, -0.04044446721673012, -0.04759037867188454, 0.05219420790672302, 0.14516489207744598, 0.12466602027416229, 0.012030052952468395, -0.8523732423782349, 0.3286539614200592, 0.13781629502773285, 0.04964001104235649, 0.17466963827610016, 0.16316373646259308, 0.12108298391103745, 1.0393753051757812, 1.545263409614563, 0.5006826519966125, 0.38299819827079773, 0.22722072899341583, 0.12465597689151764, 0.421766459941864, 0.24057304859161377, 0.032664962112903595, -0.0008196122944355011, 0.013719689100980759, -0.004400230944156647, -0.034550607204437256, 0.03334193676710129, -0.03133160248398781, 0.03158107399940491, 0.25166529417037964, 0.11589031666517258, 0.02469230815768242, 0.2271949201822281, 0.19819329679012299, 0.03844577446579933, 0.25098294019699097, 0.3977729380130768, 0.29003629088401794, 0.020679472014307976, 0.3249432444572449, 0.08736016601324081, 0.06617077440023422, 0.2704664170742035, 0.04272875562310219, 0.2547760009765625, 0.1910189837217331, 0.05348901078104973, 0.10604268312454224, 0.18277159333229065, 0.06726126372814178, 0.17944715917110443, 0.13994599878787994, 0.1771024763584137, -0.09118393063545227, 0.31016048789024353, 0.0017004311084747314, 0.17953595519065857, 0.2876017093658447, 0.10354556143283844, 0.09697495400905609, 0.19029638171195984, 0.11367585510015488, 0.261752724647522, 0.032379522919654846, 0.1341891586780548, 0.12790518999099731, 0.15793520212173462, 0.13221390545368195, 0.11513540893793106, 0.4690277576446533, -0.34469857811927795, 0.5026912093162537, 0.2804933786392212, 0.20499488711357117, 0.12777148187160492, 0.1691996157169342, 0.2664753198623657, 0.28052425384521484, -1.7069497108459473, -0.25603732466697693, 0.35436519980430603, 0.2830841839313507, 0.263208270072937, 0.13610917329788208, 0.2973829209804535, 0.27959901094436646, 0.032815080136060715, 0.2528209984302521, 0.2104400247335434, 0.16525118052959442, 0.09152399003505707, 0.23794497549533844, 0.16170428693294525, 0.21869783103466034, 0.20958884060382843, 0.2752006947994232, 0.15236084163188934, 0.25372105836868286, 0.2705709636211395, 0.05803355947136879, 0.21970783174037933, 0.4891393482685089, 0.2238718420267105, 0.16798827052116394, 0.19327081739902496, 0.1946626603603363, 0.2552616000175476, 0.14840808510780334, 0.16290079057216644, 0.4553143382072449, 0.37407007813453674, 0.22935344278812408, 0.13487114012241364, 0.16733147203922272, 0.1972103714942932, 0.21939009428024292, 0.13765937089920044, -0.03306218981742859, 0.3248131275177002, 0.24415796995162964, 0.2911323010921478, 0.1419052630662918, 0.2691669166088104, 0.12205023318529129, 0.25833141803741455, 0.04025164619088173, 0.08437483757734299, 0.14284086227416992, 0.017889369279146194, 0.20882926881313324, -0.056090615689754486, 0.22397644817829132, 0.16899237036705017, 0.03995329141616821, 0.3704646825790405, 0.09077641367912292, 0.32990768551826477, 0.14342807233333588, 0.20048300921916962, 0.18107660114765167, 0.3292381167411804, 0.39539188146591187, 0.0226934514939785, 0.2580278515815735, 0.09294304996728897, 0.2355187088251114, 0.2049431949853897, 0.19311833381652832, 0.19410313665866852, -0.07340195775032043, 0.26629188656806946, 0.31393545866012573, 0.009008328430354595, -0.03335680440068245, 0.23898880183696747, -0.20866024494171143, 0.2881905734539032, 0.1472335010766983, 0.13243986666202545, 0.24958541989326477, 0.261936217546463, 0.29587459564208984, 0.2120530754327774, 0.34150922298431396, 0.23969921469688416, 0.3298874795436859, 0.19296802580356598, 0.26413047313690186, 0.18780845403671265, 0.27959364652633667, 0.34508970379829407, 0.2015688568353653, 0.42227211594581604, 0.3734239935874939, 0.352285772562027, 0.321921706199646, 0.19163961708545685, 0.373582661151886, 0.34483233094215393, 0.344600111246109, 0.2550678849220276, 0.4181351363658905, 0.21386165916919708, 0.1635773777961731, 0.29319143295288086, 0.282371461391449, 0.33804085850715637, 0.24180899560451508, 0.34330302476882935, -0.19347010552883148, 0.25986090302467346, -0.027100400999188423, 0.2074783444404602, 0.3088296055793762, 0.42545366287231445, 0.28996023535728455, 0.27399590611457825, -0.4272677004337311, 0.24694958329200745, 0.29448598623275757, 0.20324921607971191, 0.003332694759592414, 0.34250691533088684, 0.24758176505565643, 0.215358704328537, -1.9765334129333496, 0.14315927028656006, 0.288107305765152, 0.3592205047607422, 0.5258960723876953, 0.514161229133606, 0.48324841260910034, 0.5659181475639343, 0.5621659755706787, 0.4256357252597809, 0.42453253269195557, 0.4837387502193451, 0.5021609663963318, 0.6081527471542358, 0.4292233884334564, 0.4981614053249359, 1.270236849784851, 0.9699665904045105, 1.0363377332687378, 0.9810610413551331, 1.049960732460022, 1.0365067720413208, 1.0457104444503784, 0.9923676252365112, 1.2515816688537598, 0.9652937054634094, 1.0850008726119995, 0.9699928164482117, 1.071703553199768, 0.9768680930137634, 0.9491106867790222, 1.2642040252685547, 1.2675631046295166, 1.0920886993408203, 1.0812249183654785, 1.0108273029327393, 1.064925193786621, 1.0729701519012451, 1.026587963104248, 1.0692061185836792, 0.9225526452064514, 0.9114543199539185, 0.9984538555145264, 1.0448793172836304, 0.9931032657623291, 1.0656691789627075, 1.0646916627883911, 1.0345017910003662, 1.1184958219528198, 1.0718313455581665, 1.0392831563949585, 1.1506435871124268, 1.110651969909668, 1.1332213878631592, 1.0201407670974731, 1.1271839141845703, -1.9295454025268555, 0.9862242937088013, 1.1928759813308716, 1.2793593406677246, 1.0531333684921265, 1.1609728336334229, 1.0235230922698975, 0.9515500068664551, 1.0111068487167358, -1.6754571199417114, 1.2059978246688843, 1.0758682489395142, 1.229548692703247, 1.1952712535858154, 1.0770975351333618, 1.0393321514129639, 1.3205236196517944, 1.2836308479309082, 1.3474979400634766, 1.187285304069519, 1.184339165687561, 1.1199066638946533, 1.0509816408157349, 1.0033875703811646, 1.6519519090652466, 1.4694914817810059, 1.4808794260025024, 1.510706901550293, 1.5040664672851562, 1.5411431789398193, 1.4934083223342896, 1.441940188407898, 1.429678201675415, 1.338983416557312, 1.4648514986038208, 1.365012288093567, 1.4548654556274414, 1.4395850896835327, 1.3852370977401733, 1.5296975374221802, 1.4667668342590332, 1.5067064762115479, 1.4374953508377075, 1.3555686473846436, 1.4711729288101196, 1.4269044399261475, 1.512948989868164, 1.5427628755569458, 1.0134050846099854, 0.8810805678367615, 1.354251503944397, 1.4725494384765625, 1.5668388605117798, 1.487937331199646, 1.469281792640686, 1.3993953466415405, 0.7678068280220032, 1.1674013137817383, 1.1531370878219604, 1.3426625728607178, 1.4255948066711426, 1.5428416728973389, 1.4933871030807495, 1.5978385210037231, 1.4032766819000244, 1.395781397819519, 1.3983598947525024, 1.5460950136184692, 1.562020182609558, 1.4593321084976196, 1.4887659549713135, 1.604634165763855, 1.3536635637283325, 1.7711995840072632, 1.5946109294891357, 1.716612696647644, 1.5059438943862915, 1.6034202575683594, 1.3956207036972046, 1.4873303174972534, -1.9577027559280396, 1.6091761589050293, 1.7770254611968994, 1.7119686603546143, 1.5811108350753784, 1.4207395315170288, 1.444373369216919, 1.472840428352356, 0.0057450346648693085, 0.009623251855373383, 0.008998807519674301, 0.01834186539053917, -0.010978318750858307, -0.00966942124068737, -0.013308243826031685, -0.02633771300315857, 0.05201667919754982, -1.9800000190734863, -0.0805806890130043, 0.30015280842781067, 0.024229679256677628, 0.08523024618625641, 0.05482432246208191, -0.1289466768503189, 0.4676218628883362, -0.3804776072502136, 0.01146066002547741, 0.13112865388393402, -0.009990827180445194, 0.04981386289000511, -0.33497118949890137, 0.11310575157403946, 0.2676544487476349, 1.2191263437271118, -0.10657855868339539, 0.09496773034334183, -0.018736502155661583, 0.13789844512939453, -0.004458023235201836, 0.023111356422305107, 0.19813397526741028, 1.8107773065567017, -0.25627702474594116, -0.15240296721458435, -0.06781686842441559, -0.020914098247885704, -0.014582089148461819, -0.01591673493385315, 0.32910796999931335, 1.841050386428833, 0.30922022461891174, -0.3119170367717743, -0.05019304156303406, -0.04661036282777786, 0.00423907907679677, 0.01835988089442253, 0.42916929721832275, 1.975602149963379, 0.31639790534973145, -0.13497862219810486, 0.056882698088884354, -0.07481174916028976, -0.05492188408970833, -0.04171228036284447, -0.027899712324142456, -0.0004899203777313232, -0.00034356489777565, -0.00676325149834156, -0.018451780080795288, 0.007446743547916412, 0.021805889904499054, 0.0023743994534015656, 0.32963451743125916, -0.2566015124320984, -0.05751456320285797, 0.008877046406269073, -0.023891335353255272, -0.6656115055084229, 0.02137366309762001, 0.09964008629322052, 0.10539340227842331, -0.06620372831821442, -0.2517414093017578, -0.18586784601211548, -0.029162932187318802, -0.3358490765094757, 0.023077011108398438, -0.13367868959903717, -0.30031970143318176, -0.3773438334465027, -0.1629314124584198, -0.19934624433517456, -0.2317533791065216, -0.18248307704925537, -0.30581894516944885, -0.015788491815328598, -0.0896151214838028, -0.0917922705411911, -0.15680669248104095, -0.47562146186828613, -0.23667559027671814, -0.008496390655636787, -0.15594233572483063, -0.20439118146896362, -0.31636279821395874, -0.2358679473400116, -0.26976945996284485, -0.2312922328710556, -0.2294628769159317, -0.284957617521286, -0.1917802393436432, -0.23222669959068298, -0.3421134650707245, -0.11885584890842438, -0.29583173990249634, -0.29944083094596863, -0.2873395085334778, -0.19133146107196808, -0.13370299339294434, -0.2852298319339752, -0.34543323516845703, -0.46958866715431213, -0.22187769412994385, -0.12246779352426529, -0.1558486968278885, -0.31277817487716675, -0.1750355213880539, -0.19330814480781555, -1.9511795043945312, -0.042234230786561966, -0.2728433907032013, -0.2346523255109787, -0.31571346521377563, -0.12207227945327759, -0.25037941336631775, -0.35445326566696167, 0.08901642262935638, -0.2109961211681366, -0.040235430002212524, -0.28351089358329773, -0.13085398077964783, -0.31912291049957275, -0.29088202118873596, -0.1750449240207672, -0.3457171618938446, -0.2419755756855011, -0.21600669622421265, -0.1672079861164093, -0.330064594745636, -0.10146863758563995, -0.51637202501297, -0.38423463702201843, -0.3812718093395233, -0.2691848874092102, -0.2165147215127945, -0.27982842922210693, -0.11427310109138489, -0.21635034680366516, -0.3792862892150879, -0.19449998438358307, -0.0876753032207489, -0.23970656096935272, -0.5076339840888977, -0.18263402581214905, -0.1742706447839737, -0.10945731401443481, -0.2511652410030365, -0.14937935769557953, -0.3226739466190338, -0.39369282126426697, -0.261504203081131, -0.42702752351760864, -0.1224859356880188, -0.2039065659046173, -0.03506892919540405, -0.1384289264678955, 0.11211724579334259, -0.21081849932670593, -0.20962591469287872, -0.3416286110877991, -0.34368085861206055, -0.24640128016471863, -0.3417243957519531, -0.1354392021894455, -0.0827832818031311, -0.17473824322223663, -0.2068484127521515, -0.2511182427406311, -0.21768547594547272, -0.364996075630188, -0.25212785601615906, -0.3038097023963928, -0.13641278445720673, -0.020182404667139053, -0.13799883425235748, -0.1242762953042984, -0.2549660801887512, -0.23761768639087677, -0.22172792255878448, -0.02414524555206299, -0.34249281883239746, -0.31801897287368774, -0.5208297967910767, -0.4003888666629791, -0.4386778175830841, -0.38170361518859863, -0.3559250831604004, -0.41152429580688477, -0.33808064460754395, -0.44120052456855774, -0.4657917618751526, -0.3818824291229248, -0.34588056802749634, -0.34092292189598083, -0.40133193135261536, -0.4523981809616089, -0.25576695799827576, -0.49143481254577637, -0.3715115189552307, -0.4411773681640625, -0.451713502407074, -0.5726001858711243, -0.3967486321926117, -0.563386082649231, -0.41394343972206116, -0.4082700312137604, -0.5902395844459534, -0.32283416390419006, -0.32396435737609863, -0.28784435987472534, -0.35725030303001404, -0.2057444006204605, -0.3722728490829468, -0.5185023546218872, -0.4687637388706207, -0.5129873752593994, -0.4407871663570404, -0.3722679018974304, -0.3602984845638275, -0.32128825783729553, -0.3245464861392975, -0.5118760466575623, -0.5751713514328003, -0.46252742409706116, -0.5472455620765686, -0.41451624035835266, -0.40705734491348267, -0.3657015264034271, 0.0005151978111825883, 0.0983167514204979, -0.4698008596897125, -0.5978484153747559, -0.49652719497680664, -0.49686768651008606, -0.41305211186408997, -0.6262362599372864, -0.16757641732692719, 0.4773341119289398, -0.3297838270664215, -0.4026576280593872, -0.41569775342941284, -0.3062784671783447, -0.3503691852092743, -0.33645060658454895, -0.6712222695350647, -1.0894278287887573, -0.950645923614502, -0.9965255856513977, -0.8496755957603455, -0.9411065578460693, -0.7671467065811157, -0.9891877174377441, -0.9926849603652954, -0.9626666307449341, -0.9382734298706055, -0.7915583848953247, -0.8398615121841431, -0.7095135450363159, -0.9551631808280945, -0.9613419771194458, -1.0422989130020142, -0.9673324823379517, -0.8136545419692993, -0.9093106389045715, -0.6838799715042114, -0.8913348317146301, -0.939326286315918, -0.9966720342636108, -0.9609493613243103, -0.9777474403381348, -1.0630106925964355, -0.870966374874115, -0.8524488210678101, -0.8305663466453552, -0.8707536458969116, -0.8543996810913086, -0.9561122059822083, -0.7686517834663391, -1.0015003681182861, -0.9338588714599609, -0.8990668654441833, -0.9378296136856079, -0.8898278474807739, -0.9228371977806091, -0.6534767746925354, -0.9069140553474426, -1.0731755495071411, -1.1721715927124023, -1.0484774112701416, -1.029951810836792, -0.9072733521461487, -0.7571393847465515, -0.6067821979522705, -0.5655755400657654, -1.0825051069259644, -1.0160408020019531, -1.0541661977767944, -1.0479481220245361, -0.9504522085189819, -0.9585673213005066, -0.4929097890853882, -0.3176766633987427, -0.8679599761962891, -0.945684015750885, -1.0348788499832153, -0.9048534631729126, -0.8908987641334534, -0.7509648203849792, 1.2481096982955933, 1.690096139907837, 1.867039680480957, 1.536995530128479, 1.828944206237793, 1.490026593208313, 1.605655550956726, 1.8208227157592773, 1.580498456954956, 1.2931445837020874, 1.3146134614944458, 1.4651565551757812, 1.4264910221099854, 1.8262646198272705, 1.4187602996826172, 1.6541489362716675, 1.4805476665496826, 1.2693415880203247, 1.5237120389938354, 1.4316900968551636, 1.5037928819656372, 1.5316897630691528, 1.5422059297561646, 1.5794306993484497, 1.3457101583480835, 1.3985217809677124, 1.3580197095870972, 1.4024739265441895, 1.5641645193099976, 1.5572994947433472, 1.4794344902038574, 1.670140027999878, 1.359730839729309, 1.4504231214523315, 1.4066532850265503, 1.3663103580474854, 1.4394924640655518, 1.5028098821640015, 1.4803838729858398, 1.534317970275879, 1.27421236038208, 1.4580817222595215, 1.547624111175537, 1.3495289087295532, 1.3672949075698853, 1.512474775314331, 1.5118790864944458, 1.5626518726348877, 1.1535065174102783, 1.5018867254257202, 1.461975336074829, 1.5334008932113647, 1.4294116497039795, 1.5024127960205078, 1.461848258972168, 1.4887324571609497, 0.2911352813243866, 1.27567720413208, 1.4296878576278687, 1.5097911357879639, 1.4164588451385498, 1.5379153490066528, 1.4841859340667725, 1.5098379850387573], [0.02575816959142685, 0.033832453191280365, 0.02186325564980507, -0.02343563362956047, 0.008373796939849854, 0.022868193686008453, -0.023157190531492233, -0.011937575414776802, -0.009562292136251926, 0.04007425904273987, 0.01281806267797947, 0.05577198043465614, -0.034366633743047714, 0.14120252430438995, 0.3830120861530304, 0.5510367155075073, 0.04407074674963951, 0.042898036539554596, -0.013363735750317574, -0.04073885455727577, 0.013181416317820549, 0.20148901641368866, 0.49767208099365234, 0.8542171120643616, 0.04966415464878082, 0.03211594745516777, 0.026107769459486008, 0.02123340405523777, 0.022913610562682152, 0.275804340839386, 0.1873544603586197, 0.8937105536460876, 0.05518843233585358, 0.06884030252695084, 0.045338988304138184, 0.04360342398285866, 0.170464426279068, 0.09804082661867142, 0.09755922108888626, -1.9682965278625488, 0.09354961663484573, 0.11636616289615631, 0.12496194243431091, 0.17654633522033691, 0.082257479429245, -0.01629985310137272, 0.17448009550571442, 0.8431825041770935, 0.2768542170524597, 0.22897984087467194, 0.18428944051265717, 0.3242028057575226, 0.1698732227087021, 0.032063379883766174, 0.013866825960576534, -0.6509657502174377, -0.02287939004600048, -0.010807635262608528, 0.02556709200143814, -0.0022390075027942657, 0.0269562229514122, -0.00868702307343483, -0.011499319225549698, 0.005241032689809799, -0.12251797318458557, 0.17984837293624878, 0.15171599388122559, 0.23952767252922058, 0.14658617973327637, -0.03187857195734978, 0.17869514226913452, -0.47230201959609985, 0.21767647564411163, 0.0883999690413475, 0.19526943564414978, 0.2539547383785248, 0.16765852272510529, 0.2637917399406433, 0.22952598333358765, 0.20066745579242706, 0.10459104925394058, 0.2514653503894806, 0.20306967198848724, 0.2013588547706604, 0.11723016202449799, 0.24403917789459229, -0.11191730201244354, 0.27829039096832275, 0.18986524641513824, 0.10118407011032104, 0.192891463637352, 0.25004807114601135, 0.22254399955272675, 0.19576603174209595, 0.04189552366733551, 0.4671153724193573, 0.21026839315891266, 0.18190494179725647, 0.1372881680727005, 0.21356868743896484, 0.18579307198524475, 0.017367718741297722, 0.5742712020874023, -0.3795352578163147, 0.0005835604970343411, 0.10680142790079117, 0.10631856322288513, 0.19268709421157837, 0.039948418736457825, 0.24063096940517426, 0.2178886979818344, -0.8992754220962524, 0.14366552233695984, 0.05159769207239151, 0.10962730646133423, 0.054399795830249786, 0.17843738198280334, 0.1570315808057785, 0.13558372855186462, 0.09143926203250885, -0.2610892057418823, 0.08842074871063232, 0.2850211262702942, 0.21060779690742493, -0.056127287447452545, 0.28009048104286194, -1.9800000190734863, 0.27130791544914246, 0.22090908885002136, 0.16332058608531952, 0.25229158997535706, 0.27356868982315063, 0.23920704424381256, 0.25458258390426636, 0.3668997883796692, 0.15709204971790314, 0.25300806760787964, 0.2537330985069275, 0.29304760694503784, 0.24000832438468933, 0.26037150621414185, 0.24216324090957642, 0.312095582485199, 0.3121345639228821, 0.12995745241641998, 0.28224459290504456, 0.23579628765583038, 0.3147800862789154, 0.30155932903289795, 0.17367129027843475, 0.22371777892112732, 0.29930543899536133, 0.20729230344295502, 0.1486617922782898, 0.212381049990654, 0.19712403416633606, 0.2274898737668991, 0.28834760189056396, 0.37618738412857056, 0.42066219449043274, 0.19744563102722168, 0.25029611587524414, 0.1880260854959488, 0.23517867922782898, 0.17599347233772278, 0.3447386622428894, 0.499813437461853, 0.07145858556032181, 0.2334524691104889, 0.22675721347332, 0.17944568395614624, 0.1851162314414978, 0.3852872848510742, 0.44717666506767273, 0.17382292449474335, 0.10528840124607086, 0.23792171478271484, 0.2244063913822174, 0.12279397994279861, 0.4050738513469696, 0.3199222981929779, 0.1920062005519867, 0.16270644962787628, -0.0025766033213585615, 0.20313751697540283, 0.08466833084821701, 0.35986143350601196, 0.44179919362068176, 0.2930697500705719, 0.22225017845630646, 0.018444836139678955, 0.10819666087627411, 0.30800050497055054, 0.2887442708015442, 0.3384796380996704, 0.29524150490760803, 0.2739603519439697, 0.2501353323459625, 0.292726069688797, 0.12275530397891998, 0.31409260630607605, 0.3622710704803467, 0.31187140941619873, 0.3228452503681183, 0.30475687980651855, 0.27974751591682434, 0.31554898619651794, -0.8689404129981995, 0.38777104020118713, 0.4128473699092865, 0.3178952634334564, 0.3894768953323364, 0.3453570008277893, 0.4328795373439789, 0.24355798959732056, -1.9678741693496704, 0.4329531490802765, 0.45193374156951904, 0.38201993703842163, 0.4391566812992096, 0.46086567640304565, 0.44033244252204895, 0.22421279549598694, -0.0392187237739563, 0.3831826448440552, 0.3909083604812622, 0.3873520791530609, 0.43985316157341003, 0.40561410784721375, 0.39378538727760315, 0.3983980417251587, 0.2904128134250641, 0.3232567608356476, 0.3851031959056854, 0.37758660316467285, 0.32636430859565735, 0.32681456208229065, 0.31667035818099976, 0.05498874559998512, 0.23726607859134674, 0.33284351229667664, 0.3464033305644989, 0.36659860610961914, 0.3715844750404358, 0.3074900209903717, 0.3642328977584839, 0.29977652430534363, 0.08048302680253983, 0.39692696928977966, 0.37432190775871277, 0.4084971845149994, 0.41677382588386536, 0.39442795515060425, 0.4724162518978119, 0.4215412437915802, 0.44397273659706116, 0.9075183272361755, 0.9527613520622253, 0.9518189430236816, 0.9566925168037415, 1.0354176759719849, 1.086185336112976, 1.2010544538497925, 0.3139297366142273, 1.046804666519165, 0.9443729519844055, 1.0008244514465332, 0.9406530857086182, 1.0027029514312744, 0.9333381056785583, 0.8946356773376465, 0.7502575516700745, 1.0341936349868774, 1.0657110214233398, 0.9141942858695984, 0.9904338121414185, 0.9663373827934265, 1.0083770751953125, 0.9028613567352295, -1.7387287616729736, 1.0068079233169556, 0.9893068075180054, 1.0336627960205078, 0.9429726004600525, 0.8727472424507141, 0.9559751749038696, 0.895444929599762, -1.9588757753372192, 0.9166079163551331, 0.9599045515060425, 1.0633736848831177, 1.0505485534667969, 1.085768222808838, 1.0062856674194336, 1.2362710237503052, 1.0428727865219116, 1.116713523864746, 0.9245333671569824, 0.961988091468811, 1.0248680114746094, 0.9400516152381897, 0.8668304085731506, 0.865924060344696, 1.088626503944397, 0.9237581491470337, 0.9659063220024109, 1.0372588634490967, 0.9405200481414795, 1.0380867719650269, 1.0870054960250854, 0.8101183176040649, 0.8826395273208618, 1.2057524919509888, 1.188419222831726, 1.0318557024002075, 1.0541177988052368, 1.1378122568130493, 1.323596715927124, 1.147581696510315, 1.1526737213134766, 0.3023114800453186, 0.20467889308929443, 0.21745580434799194, 0.391889750957489, 0.3935306966304779, 0.38501155376434326, 0.39400404691696167, 0.33716821670532227, 0.22037971019744873, 0.22307348251342773, 0.15128934383392334, 0.24879394471645355, 0.2989823818206787, 0.3591131865978241, 0.48066094517707825, 0.5678263306617737, 0.15599212050437927, 0.1208883672952652, 0.17361173033714294, 0.16463957726955414, 0.276828795671463, 0.3489703834056854, 0.49512287974357605, 0.6593238711357117, 0.03643014281988144, 0.08726994693279266, 0.14431437849998474, 0.1916847825050354, 0.23403491079807281, 0.41612857580184937, 0.47042036056518555, 0.5944691896438599, -0.028928861021995544, 0.08903761208057404, 0.08089520037174225, 0.12986429035663605, 0.22320376336574554, 0.40843430161476135, 0.5575236082077026, 0.7518721222877502, -0.08873556554317474, -0.01707795448601246, 0.12249818444252014, 0.09092874079942703, 0.19503094255924225, 0.3901747763156891, 0.5335396528244019, 1.8862264156341553, -0.03917985036969185, 0.10910060256719589, -0.054279375821352005, 0.03255733475089073, 0.05535557493567467, 0.025052541866898537, 0.1362307369709015, 0.40965205430984497, -0.1701360046863556, -0.04746204614639282, -0.048125531524419785, -0.07809748500585556, -0.19568665325641632, -0.04189937561750412, 0.055587492883205414, -0.14916792511940002, -0.015869343653321266, 0.020343728363513947, 0.024057909846305847, 0.03510827571153641, -0.010527469217777252, 0.024824436753988266, -0.031554557383060455, 0.035216331481933594, -0.18137837946414948, -0.2209703028202057, -0.24633103609085083, -0.16190020740032196, -0.09403414279222488, -0.11784336715936661, -0.11737683415412903, -1.8211441040039062, -0.010694686323404312, -0.08105357736349106, -0.18777088820934296, -0.1251325160264969, -0.13886766135692596, 0.017184631898999214, -0.014279989525675774, 0.45511531829833984, -0.030437307432293892, -0.055164724588394165, -0.07703250646591187, -0.1301257461309433, -0.09621576219797134, -0.11657734215259552, -0.3021632432937622, 1.0011361837387085, -0.02751780115067959, 0.017504658550024033, 0.003757467493414879, -0.044358476996421814, -0.11783350259065628, -0.1716868281364441, -0.48973819613456726, 0.6854827404022217, 0.036550410091876984, 0.021848078817129135, -0.013288870453834534, 0.023482205346226692, -0.029186611995100975, -0.12271666526794434, -0.24237178266048431, -0.8636612296104431, -0.011865269392728806, -0.011408401653170586, 0.009120575152337551, -0.0782148540019989, -0.08511325716972351, -0.14117851853370667, -0.3501444160938263, -0.8781502842903137, 0.009973682463169098, -0.027100596576929092, 0.016746699810028076, -0.013435892760753632, 0.022617582231760025, 0.010627195239067078, 0.017551928758621216, -0.018786590546369553, -0.18969956040382385, -0.3776746988296509, -0.20524373650550842, -0.1859123557806015, -0.5050211548805237, -0.49865466356277466, -0.7452647686004639, -1.4884976148605347, -0.24415156245231628, -0.31211742758750916, -0.2876327633857727, -0.34764301776885986, -0.27789193391799927, -0.2834974527359009, -0.6024696230888367, -0.36386898159980774, -0.3428288400173187, -0.2801470458507538, -0.392078161239624, -0.3067423701286316, -0.3391333818435669, -0.4777548909187317, -0.2920319437980652, -0.2112797647714615, -0.37192657589912415, -0.21286331117153168, -0.24800506234169006, -0.33891168236732483, -0.21025294065475464, -0.24721871316432953, -0.18773840367794037, -0.3025479316711426, -0.2348020225763321, -0.2746259272098541, -0.21511925756931305, -0.21563440561294556, -0.2889671325683594, -0.3255760967731476, -0.17601025104522705, -1.9512019157409668, -0.17916202545166016, -0.20547202229499817, -0.21401719748973846, -0.29344117641448975, -0.28495854139328003, -0.23884443938732147, -0.2860841453075409, 1.9800000190734863, -0.1419338583946228, -0.13155323266983032, -0.20880582928657532, -0.2591826021671295, -0.26552456617355347, -0.21611954271793365, -0.2999846041202545, -0.24671152234077454, -0.38161322474479675, -0.23758885264396667, -0.19735047221183777, -0.17625844478607178, -0.2604447901248932, -0.2685638666152954, -0.4261382520198822, -0.09555137902498245, -0.13894511759281158, -0.41969114542007446, -0.15211251378059387, -0.2887255847454071, -0.42540499567985535, -0.27738508582115173, -0.4235176146030426, -0.49715936183929443, -0.22920815646648407, -0.19551879167556763, -0.37311723828315735, -0.1904194951057434, -0.15595346689224243, -0.42623171210289, -0.3159799575805664, -0.10993359237909317, -0.19438770413398743, -0.4604041278362274, -0.21523883938789368, -0.38492000102996826, -0.1981237679719925, -0.08645244687795639, -0.42581260204315186, -0.24154964089393616, -0.27052953839302063, -0.19402071833610535, -0.24371354281902313, -0.22893108427524567, -0.2578646242618561, -0.14477849006652832, -0.26548415422439575, -0.38640061020851135, -0.24211937189102173, -0.2656450569629669, -0.28617003560066223, -0.2888715863227844, -0.3310767710208893, -0.35023409128189087, -0.17207981646060944, -0.872668445110321, -0.35081321001052856, -0.3492136597633362, -0.2696373462677002, -0.30306723713874817, -0.25905051827430725, -0.360779732465744, -0.26564136147499084, -0.6705743670463562, -0.25799620151519775, -0.31463178992271423, -0.36723071336746216, -0.314035564661026, -0.3021067678928375, -0.290677011013031, -0.3892471492290497, -0.28500863909721375, -0.2555970549583435, -0.2471533566713333, -0.3237243592739105, -0.3096895217895508, -0.2605881094932556, -0.29107099771499634, -0.09230757504701614, -0.169090136885643, -0.484036386013031, -0.5672105550765991, -0.5129278898239136, -0.48169824481010437, -0.5208616256713867, -0.47197604179382324, -0.6135793328285217, -0.8013635873794556, -0.5205780863761902, -0.6133689284324646, -0.5622020959854126, -0.581879198551178, -0.6184555292129517, -0.5919502377510071, -0.7838551998138428, -0.8298004269599915, -0.4647841453552246, -0.47645384073257446, -0.5619176626205444, -0.49457839131355286, -0.5624093413352966, -0.6548882722854614, -0.6118149757385254, -0.4718814790248871, -0.5312215089797974, -0.4820602536201477, -0.5288053154945374, -0.46170786023139954, -0.5517374277114868, -0.432116836309433, -1.0292257070541382, 0.055893294513225555, -0.4042400121688843, -0.37241241335868835, -0.50766521692276, -0.45195063948631287, -0.43803054094314575, -0.47124776244163513, -0.26499003171920776, -0.21732383966445923, -0.38997286558151245, -0.4624935984611511, -0.43228039145469666, -0.4059659242630005, -0.4246649146080017, -0.38229626417160034, -0.35286951065063477, -0.1695297360420227, -0.4174141585826874, -0.41718247532844543, -0.47207385301589966, -0.48911339044570923, -0.5017910599708557, -0.5379630923271179, -0.41323474049568176, -0.36462658643722534, -0.41367894411087036, -0.3993975520133972, -0.4714258909225464, -0.44912099838256836, -0.47779425978660583, -0.38484999537467957, -0.4324919879436493, -0.5116685032844543, -1.130386233329773, -1.2985801696777344, -1.1650336980819702, -1.0713841915130615, -1.2092032432556152, -1.0550283193588257, -1.1439071893692017, -1.0520374774932861, -1.1812942028045654, -1.1785483360290527, -1.2223788499832153, -1.2051290273666382, -1.1845309734344482, -1.205736517906189, -1.0755751132965088, -1.2812341451644897, -1.031491994857788, -1.2869596481323242, -1.2407842874526978, -1.2629200220108032, -1.0924235582351685, -1.3473598957061768, -1.2630478143692017, -0.9016321301460266, -1.1385034322738647, -1.0592455863952637, -1.18400239944458, -1.1400201320648193, -1.1813268661499023, -1.2412223815917969, -1.2285674810409546, -0.6980971693992615, -1.0080912113189697, -1.0709267854690552, -1.1516504287719727, -1.1788914203643799, -1.228875756263733, -1.32204008102417, -1.2549121379852295, -1.034416675567627, -1.017750859260559, -1.1775991916656494, -1.1608726978302002, -1.181210994720459, -1.2796574831008911, -1.2931708097457886, -1.2612884044647217, -0.9917282462120056, -1.13310968875885, -1.223879337310791, -1.1484122276306152, -1.1788455247879028, -1.271488070487976, -1.1070767641067505, -1.210860252380371, -1.0913728475570679, -1.0354173183441162, -1.1325889825820923, -1.147318720817566, -1.1932761669158936, -1.0897425413131714, -1.1523734331130981, -1.2835420370101929, -1.3633393049240112, 0.8866167068481445, 0.7824093699455261, 0.6086764931678772, 0.781855046749115, 0.8485641479492188, 0.6889832615852356, -1.9637997150421143, -1.9800000190734863, 0.6896268725395203, 0.8878383636474609, 0.7986481785774231, 0.6362009644508362, 0.7723415493965149, 0.7482036352157593, 0.3985379636287689, -1.9800000190734863, 0.7635437250137329, 0.8195813894271851, 0.8240300416946411, 0.7286099195480347, 0.7876985669136047, 0.7468518614768982, -0.11869014799594879, 0.5261532068252563, 0.9073301553726196, 0.9656119346618652, 0.8609384894371033, 0.8448806405067444, 0.8323251605033875, 0.793003499507904, 0.4715450406074524, 1.0203253030776978, 0.918128490447998, 0.9409975409507751, 0.9222452044487, 0.8472967147827148, 0.7800583243370056, 0.7644703984260559, 0.765007734298706, 0.6973331570625305, 0.8820289969444275, 0.8844650983810425, 0.7961086630821228, 0.804300844669342, 0.7241560220718384, 0.7433204650878906, 0.799949586391449, 0.5969188809394836, 0.8706669211387634, 0.8064741492271423, 0.8397458791732788, 0.7544160485267639, 0.7212795615196228, 0.7769652009010315, 0.710110604763031, 0.7291440367698669, 0.9191821217536926, 0.8324159979820251, 0.8515101075172424, 0.8336513638496399, 0.7852558493614197, 0.7312477827072144, 0.6815181970596313, 0.8173616528511047], [-0.0004922971129417419, -0.004343695938587189, -0.03274241462349892, -0.036024633795022964, 0.0007774718105792999, 0.02806464582681656, 0.02767670899629593, 0.03062162548303604, 0.09705080091953278, 0.11925119906663895, 0.11741361021995544, 0.10786455869674683, 0.11413540691137314, 0.15774457156658173, -0.2964751720428467, -0.3030382990837097, 0.08891181647777557, 0.09784504771232605, 0.09711936116218567, 0.061102841049432755, 0.057096533477306366, -0.07094020396471024, -0.2143968939781189, -0.2626497149467468, 0.1081327348947525, 0.10914181917905807, 0.08756143599748611, -0.006089967209845781, 0.04508547484874725, 0.06897170096635818, 0.10205425322055817, -0.08656766265630722, 0.09228602051734924, 0.13063809275627136, 0.0725892037153244, 0.062089335173368454, -0.043209172785282135, 0.0482180118560791, 0.1083514466881752, 0.115512914955616, -0.018742918968200684, 0.16499063372612, 0.0190916545689106, 0.06599432975053787, 0.07295136153697968, 0.04654279723763466, 0.11255665868520737, 0.03405829519033432, 0.1194395050406456, 0.07022500783205032, 0.1223611980676651, 0.29541367292404175, -0.12591882050037384, 0.06515771150588989, 0.054791159927845, 0.17272847890853882, 0.029360949993133545, -0.015223460271954536, 0.010021358728408813, 0.02300400286912918, 0.025395363569259644, -0.012723226100206375, -0.020271247252821922, 0.03354273736476898, 0.1004510298371315, 0.18803739547729492, 0.24869932234287262, 0.1950521022081375, 0.05608014762401581, -0.5357726216316223, -0.48265594244003296, -0.2839091718196869, 0.17591242492198944, 0.27324941754341125, 0.12405652552843094, 0.1678115278482437, 0.21624647080898285, -0.03725113347172737, 0.06396222114562988, 0.026821209117770195, 0.1884279102087021, 0.1907358467578888, 0.21172554790973663, 0.203829824924469, 0.1133386567234993, 0.11051063239574432, -0.0020440390799194574, 0.032674964517354965, 0.25875115394592285, 0.2279769331216812, 0.1943606287240982, 0.1436552107334137, 0.20298583805561066, 0.12827521562576294, 0.12632866203784943, 0.06720086187124252, 0.1747286170721054, 0.2030775398015976, 0.2352631688117981, 0.2280537635087967, 0.22371165454387665, 0.11923980712890625, 0.1002935916185379, 0.18331290781497955, 0.28900882601737976, 0.2955893278121948, 0.1601358950138092, 0.26654407382011414, 0.20607079565525055, 0.2622030973434448, 0.05821689963340759, 0.2885690927505493, 0.33526507019996643, 0.3115507662296295, 0.3024570345878601, 0.21302051842212677, 0.2937365770339966, 0.28715041279792786, 0.35827144980430603, 0.30872130393981934, 0.25150904059410095, 0.18737643957138062, 0.42737090587615967, 0.3893015682697296, 0.3550419509410858, 0.02364058420062065, 0.1530311405658722, 0.14626097679138184, 0.12843777239322662, 0.21377955377101898, 0.23640336096286774, -0.006776095367968082, 0.2367301732301712, -0.3569382429122925, -0.760263979434967, -0.23146185278892517, 0.2179667204618454, 0.21637864410877228, 0.08935979753732681, 0.22498176991939545, 0.16506285965442657, 0.32753780484199524, -0.11206720769405365, -0.07020167261362076, 0.2425391525030136, 0.21633386611938477, 0.2478349655866623, 0.1664683222770691, 0.19483940303325653, -0.1488494724035263, -0.06050184369087219, -0.0723794475197792, 0.1489979326725006, 0.2847588360309601, 0.14833597838878632, 0.22710666060447693, -0.02015584334731102, 0.14074862003326416, 0.10673710703849792, 0.12195905297994614, 0.29535242915153503, 0.2223026007413864, 0.27622711658477783, -0.05322427675127983, 0.24282799661159515, 0.2309805303812027, 0.23164473474025726, 0.12629815936088562, 0.2640724182128906, 0.1582944244146347, -0.1909378618001938, 0.17429429292678833, 0.17086593806743622, 0.2627321779727936, 0.20063097774982452, 0.20074601471424103, 0.1686037927865982, -0.11030793190002441, 0.050822533667087555, 0.24388274550437927, 0.1688474416732788, 0.22779150307178497, 0.45717111229896545, 0.15274553000926971, -1.4395604133605957, 0.3421536087989807, 0.25652942061424255, 0.43235257267951965, 0.25008872151374817, 0.4329083263874054, 0.4160202741622925, 0.3602605164051056, 0.7750982046127319, 0.7539856433868408, 0.748704731464386, 0.7021455764770508, 0.6441194415092468, 0.7065473794937134, -0.1814287006855011, -1.944128155708313, 0.6833342909812927, 0.6464860439300537, 0.595129132270813, 0.6094193458557129, 0.6899946331977844, 0.35792332887649536, 0.009748975746333599, -1.9800000190734863, 0.4147474467754364, 0.43493643403053284, 0.4990006983280182, 0.2887755036354065, 0.2434227466583252, 0.35300397872924805, 0.07857268303632736, -0.43006786704063416, 0.4139683246612549, 0.45829102396965027, 0.5618025064468384, 0.4465210437774658, 0.380583792924881, 0.3280733823776245, 0.30845266580581665, -0.11305049061775208, 0.4795932471752167, 0.5063382983207703, 0.5223574638366699, 0.4718112647533417, 0.40232065320014954, 0.31136077642440796, 0.2525743246078491, -0.020638516172766685, 0.4560435116291046, 0.5063968896865845, 0.5297901034355164, 0.43922096490859985, 0.5329699516296387, 0.10473751276731491, 0.1646871268749237, 0.04308149218559265, 0.4799385368824005, 0.4958852529525757, 0.43194296956062317, 0.40844470262527466, 0.42869019508361816, 0.2505105137825012, 0.019744666293263435, 0.015851274132728577, 0.43433693051338196, 0.39801251888275146, 0.42377811670303345, 0.3474816679954529, 0.337675541639328, 0.2556074261665344, 0.15870395302772522, 0.08433777093887329, 0.9964434504508972, 0.9404324889183044, 0.799571692943573, 0.7083228230476379, 0.7499879002571106, 0.339309424161911, 0.002805219264701009, -1.6330535411834717, 0.7566835880279541, 0.7597758173942566, 0.7423321008682251, 0.7815387845039368, 0.7502631545066833, 0.6359772682189941, -1.292120337486267, -1.9800000190734863, 0.739883303642273, 0.7028108239173889, 0.7557508945465088, 0.6167879700660706, 0.6240198612213135, 0.44512954354286194, 0.48915207386016846, 0.273456871509552, 0.6965162754058838, 0.7472860217094421, 0.6805823445320129, 0.7061415910720825, 0.5483859181404114, 0.6273411512374878, 0.4799479842185974, 0.5167887210845947, 0.7866278290748596, 0.7241665124893188, 0.6286397576332092, 0.6234108805656433, 0.625464677810669, 0.536422848701477, 0.636491596698761, 0.5868805646896362, 0.6576569676399231, 0.6817411780357361, 0.4722721576690674, 0.7008850574493408, 0.6450989842414856, 0.627651035785675, 0.5786888003349304, 0.5899691581726074, 0.7350844144821167, 0.5599856376647949, 0.5766852498054504, 0.668841540813446, 0.5518457889556885, 0.7503594756126404, -1.9800000190734863, 0.615776002407074, 0.6406019926071167, 0.5148679614067078, 0.557689905166626, 0.5682544112205505, 0.8106699585914612, 0.7740679383277893, 0.46644797921180725, 0.5427652597427368, 0.3030775189399719, -1.6235778331756592, -1.9800000190734863, 1.6529844999313354, 1.749227523803711, 1.9642478227615356, 1.771572232246399, -1.9800000190734863, 0.11279607564210892, 0.03649713844060898, -0.7542330026626587, 0.5996063351631165, 1.2321653366088867, 1.568676233291626, -1.2105764150619507, -1.9800000190734863, -1.8264060020446777, -1.9795184135437012, -1.9800000190734863, 0.5162399411201477, 0.9134689569473267, 0.2550210654735565, -0.42766499519348145, -0.2847200930118561, 0.4383186995983124, -1.8905946016311646, -1.9644291400909424, 0.5499273538589478, 0.012028145603835583, 0.6933239102363586, -0.6668395400047302, -1.9800000190734863, -0.6286150217056274, -0.46300822496414185, -1.9800000190734863, -1.1050288677215576, -1.4613155126571655, -0.838189423084259, -0.8924258947372437, 0.9191030859947205, -1.9800000190734863, -0.8668379187583923, -1.92462956905365, -1.79618501663208, -1.5735862255096436, -0.5119994282722473, -1.1293495893478394, -1.9373890161514282, -0.5230963230133057, 0.2808977961540222, -1.9704694747924805, -0.6112927198410034, -1.3181028366088867, -1.4143790006637573, -1.9800000190734863, -1.9800000190734863, 0.47536394000053406, -1.937896966934204, -1.6299277544021606, -1.760728120803833, -1.7685070037841797, -1.2771694660186768, -0.1248658075928688, -1.9680088758468628, -0.00942816212773323, 0.0202329084277153, -0.01353568583726883, -0.01195649802684784, -0.03461838141083717, -0.017036564648151398, 0.0217885822057724, 0.009895652532577515, 0.1925816535949707, 0.022552872076630592, 0.32569876313209534, 0.1781085580587387, 0.21272706985473633, -0.36375153064727783, -0.24395865201950073, 1.589928150177002, -0.07432033121585846, -0.0346306674182415, 0.031685732305049896, 0.1932365447282791, 0.24960161745548248, 0.4473556876182556, 0.26504096388816833, 0.24432110786437988, -0.11764790117740631, -0.05468488112092018, -0.06923838704824448, -0.051176443696022034, 0.046637073159217834, 0.04719262942671776, -0.171369269490242, -0.0486423559486866, -0.07306203246116638, -0.08039527386426926, -0.07062643021345139, -0.050257451832294464, -0.13205839693546295, -0.11349386721849442, -0.18435508012771606, -0.20571908354759216, -0.05251142010092735, -0.06737549602985382, -0.04942487180233002, -0.0736970528960228, -0.05665053054690361, -0.08055075258016586, -0.19515995681285858, -0.17481909692287445, -0.030139127746224403, -0.05438637360930443, -0.05478322133421898, 0.009744368493556976, -0.05147777125239372, -0.10991843789815903, -0.17452040314674377, -0.15122881531715393, 0.011588416993618011, 0.0053964219987392426, 0.03247126191854477, 0.033598221838474274, 0.03383871167898178, -0.01816355623304844, 0.0333213284611702, -0.01044238731265068, 0.2052970826625824, -0.010396057739853859, 0.2938190996646881, -0.24739553034305573, -1.5084794759750366, -0.4667354226112366, -0.11166432499885559, 0.5029412508010864, -0.5236511826515198, -0.03057383932173252, -0.1590750366449356, 0.2362794578075409, -0.3610806167125702, -0.010972613468766212, 0.41745415329933167, 0.42425504326820374, -0.12601716816425323, 0.10006169229745865, 0.4443567991256714, -0.20518484711647034, -0.10657772421836853, 0.29287195205688477, 0.27330267429351807, -0.10879050940275192, -0.20742224156856537, -0.25982666015625, -0.12886947393417358, 0.034356385469436646, -0.2149551957845688, 0.43485507369041443, 0.08006969094276428, 0.2020607590675354, -0.1992420256137848, -0.21345825493335724, -0.2660822868347168, -0.22577233612537384, -0.1443978250026703, -0.17883267998695374, 0.13106518983840942, -0.14306414127349854, -0.24968308210372925, -0.19897611439228058, -0.18121689558029175, -0.23412486910820007, -0.18171072006225586, -0.17262618243694305, -0.2325829416513443, -0.02879169210791588, -0.3252575695514679, -0.29742980003356934, -0.2279457002878189, -0.1891980767250061, -0.2526004910469055, -0.2353234589099884, -0.1408158242702484, -0.12970542907714844, -0.09002863615751266, -0.19177177548408508, -0.33648160099983215, -0.31316426396369934, -0.242234468460083, -0.1988288313150406, -0.2587957978248596, -0.031318776309490204, -1.4112517833709717, -1.2522270679473877, -0.5284448266029358, -0.6300113201141357, -0.43288081884384155, -0.18692956864833832, -0.7625570297241211, -0.2608867287635803, -0.2407764494419098, -0.1711045652627945, -0.03709855675697327, 0.03144710138440132, 0.15353436768054962, -0.0829421654343605, 0.07350116968154907, 0.07593810558319092, -0.250076025724411, -0.04863818362355232, 0.04566448554396629, 0.06274188309907913, 0.09899555146694183, 0.10713427513837814, 0.17825505137443542, 0.08072938770055771, -0.18662728369235992, -0.16154181957244873, -0.07681731879711151, -0.0368446409702301, -0.27465716004371643, -0.009430615231394768, -0.013760285452008247, -0.10106223821640015, -0.1650761216878891, -0.026173453778028488, -0.1308167576789856, -0.18279899656772614, -0.31210148334503174, -0.25716879963874817, -0.2203293889760971, -0.36088207364082336, -0.04794349893927574, -0.15098837018013, -0.1591556966304779, -0.2521694004535675, -0.21496345102787018, -0.2530541718006134, -0.24250416457653046, -0.14203104376792908, -0.029519077390432358, -0.07534773647785187, -0.19117388129234314, -0.20225512981414795, -0.19507594406604767, -0.22303372621536255, -0.19378265738487244, -0.11359091848134995, 0.044053204357624054, -0.16500651836395264, -0.11312659829854965, -0.17014318704605103, -0.21121390163898468, -0.21982920169830322, -0.029771234840154648, -0.10314913839101791, -0.1606120467185974, -0.06445862352848053, 0.06366850435733795, -0.1302500069141388, -0.10229358077049255, 0.2849750816822052, 0.3470045030117035, 0.49514004588127136, -0.26520490646362305, -0.30966681241989136, -0.4011937975883484, -0.33694469928741455, -0.3634476661682129, -0.016866236925125122, -0.02644795924425125, 0.13856366276741028, -0.33267149329185486, -0.5311663150787354, -0.44471848011016846, -0.3181499242782593, -0.34330514073371887, -0.3279481828212738, -0.15204331278800964, -0.009457283653318882, -0.40241870284080505, -0.47496455907821655, -0.5451687574386597, -0.31267911195755005, -0.3367260992527008, -0.27021437883377075, -0.0315898172557354, -0.0961257740855217, -0.3959055244922638, -0.3416082561016083, -0.38586723804473877, -0.3756214678287506, -0.2646546959877014, -0.29658108949661255, -0.12892155349254608, -0.06820166110992432, -0.4119819700717926, -0.49902698397636414, -0.4435587227344513, -0.38979145884513855, -0.34696316719055176, -0.31588661670684814, -0.14964880049228668, -0.015372266992926598, -0.4288046956062317, -0.5034631490707397, -0.511256992816925, -0.4190240800380707, -0.3421793282032013, -0.41220080852508545, -0.22973008453845978, -0.24156387150287628, -0.42541900277137756, -0.4387642741203308, -0.4813646078109741, -0.41336625814437866, -0.39993634819984436, -0.3438255786895752, -0.247431680560112, -0.28815793991088867, -1.978487491607666, -1.804999589920044, -1.47165048122406, -1.9196664094924927, 0.0380672924220562, -0.6643158197402954, 0.27355509996414185, 0.40454310178756714, -0.7358900308609009, -0.5375320315361023, -0.5489710569381714, -1.9653128385543823, -1.2051962614059448, 0.4922078847885132, 0.2637619972229004, 0.4534623920917511, -0.4987904727458954, -0.9040058851242065, -0.4985561966896057, -0.2917386293411255, -0.017687784507870674, -0.17221738398075104, -0.15723608434200287, 0.0691172406077385, -0.6736519932746887, -0.6429488658905029, -0.5281086564064026, -0.47455546259880066, -0.28962939977645874, -0.3702542781829834, -0.11423840373754501, -0.249332994222641, -0.6162853837013245, -0.6041624546051025, -0.5539812445640564, -0.3577704429626465, -0.3698144853115082, -0.34717610478401184, -0.28354352712631226, -0.11856818199157715, -0.5187618136405945, -0.6245157122612, -0.45185014605522156, -0.4041045606136322, -0.4657084047794342, -0.531699538230896, -0.34078049659729004, -0.21452313661575317, -0.6120337843894958, -0.4355134963989258, -0.4546107053756714, -0.5003267526626587, -0.5293325185775757, -0.48235124349594116, -0.3765081763267517, -0.23258242011070251, -0.5039678812026978, -0.4467216730117798, -0.4217749834060669, -0.5113224983215332, -0.44852346181869507, -0.6873425245285034, -0.3258289396762848, -0.23022353649139404, -1.9800000190734863, -1.9800000190734863, -1.9474210739135742, 1.0774271488189697, -1.9800000190734863, 0.845658540725708, 1.697946310043335, -1.9395053386688232, -0.2952432632446289, 1.2483912706375122, 1.2825751304626465, 1.2695695161819458, 1.6292095184326172, -1.9742566347122192, 1.3842568397521973, 1.3997950553894043, 1.3927375078201294, 1.287596344947815, 1.4102874994277954, 1.2632670402526855, 1.2664999961853027, 1.4733271598815918, 1.1784769296646118, 1.3875244855880737, 1.1713839769363403, 1.3431557416915894, 1.4264577627182007, 1.3735021352767944, 1.4221612215042114, 1.3071186542510986, 1.1615952253341675, 1.300430417060852, 1.3781073093414307, 1.238579273223877, 1.4923793077468872, 1.4761269092559814, 1.3415135145187378, 1.510223627090454, 1.4299614429473877, 1.5645750761032104, 1.2937242984771729, 1.5249519348144531, 1.5494709014892578, 1.4830865859985352, 1.5079830884933472, 1.5111685991287231, 1.599005103111267, 1.5282986164093018, 1.4414887428283691, 1.4870461225509644, 1.5118203163146973, 1.514299988746643, 1.580830693244934, 1.5634126663208008, 1.5727514028549194, 1.5806626081466675, 1.4546507596969604, 1.5586678981781006, 1.6233789920806885, 1.5797358751296997, 1.588545322418213, 1.5931510925292969, 1.6167235374450684, 1.6360481977462769], [0.023962412029504776, 0.034898921847343445, 0.01861688122153282, 0.027763858437538147, -0.028436047956347466, -0.016652381047606468, -0.015360206365585327, 0.020680081099271774, -0.24384810030460358, -0.5146146416664124, -0.28184524178504944, -0.14131315052509308, 0.07770698517560959, 0.16583901643753052, 0.14117781817913055, 0.038664545863866806, -0.4371531903743744, -0.4351164698600769, -0.1781989336013794, -0.015026449225842953, 0.05587485060095787, 0.047815706580877304, 0.08931267261505127, 0.04699147492647171, -0.39827093482017517, -0.3403055667877197, -0.1793406754732132, -0.07359824329614639, -0.04704958200454712, -0.04825812578201294, -0.005777898710221052, 0.03321673348546028, -0.35352665185928345, -0.2964480221271515, -0.24794593453407288, -0.11612686514854431, -0.099271260201931, -0.12245157361030579, -0.06971442699432373, -0.02969967946410179, -0.5047473907470703, -0.22886855900287628, -0.018690571188926697, -0.10765797644853592, -0.05446871742606163, -0.1338587999343872, -0.19240190088748932, -0.1392173171043396, -0.7526455521583557, -0.2713775634765625, -0.17771419882774353, -0.1161465123295784, -0.14439848065376282, -0.06827712059020996, -0.38921478390693665, -0.14545436203479767, 0.014968857169151306, 0.014287583529949188, 0.0032118745148181915, 0.02593798190355301, -0.03202928975224495, 0.02497076615691185, 0.00982508435845375, 0.022955887019634247, -0.21464061737060547, 0.11443445086479187, -0.07931885868310928, -0.07405487447977066, -0.010343900881707668, 0.10835836827754974, 0.07126452773809433, -0.004570868797600269, -0.21461524069309235, -0.0699886679649353, -0.18641604483127594, -0.07042073458433151, -0.024220414459705353, 0.025197526440024376, -0.004789755214005709, 0.11106207966804504, -0.2313428670167923, -0.19819840788841248, -0.1555851846933365, -0.07625356316566467, -0.09720160067081451, 0.04980125278234482, 0.043574996292591095, 0.18383477628231049, -0.15911872684955597, -0.3240693211555481, -0.19836296141147614, -0.15884292125701904, -0.07765000313520432, 0.04453020915389061, 0.06970002502202988, 0.020754549652338028, -0.18986280262470245, -0.20444965362548828, -0.11475590616464615, -0.09061922132968903, 0.003525505308061838, -0.04837777093052864, 0.052027627825737, 0.01805412769317627, -0.29848697781562805, -0.29028192162513733, -0.12341415882110596, -0.05546903982758522, 0.0027235548477619886, 0.04377103969454765, -0.04705765098333359, 0.05754469707608223, -0.2111051231622696, -0.040606699883937836, -0.060068245977163315, -0.030744152143597603, -0.005620010197162628, 0.0051522343419492245, 0.10859289765357971, -0.08934728056192398, -1.6716241836547852, 0.05705002695322037, -0.17736290395259857, -0.0006285103154368699, 0.10742315649986267, -0.049898043274879456, 0.059769824147224426, -0.25741350650787354, -0.1750374287366867, -0.02485988475382328, -0.24191851913928986, -0.16765689849853516, -0.197585791349411, -0.01616198569536209, -0.10020734369754791, 0.047888755798339844, -0.08339910954236984, -0.2413506805896759, -0.24772892892360687, -0.20222294330596924, -0.04131557047367096, -0.11861319094896317, -0.06703728437423706,